svm_type c_svc
kernel_type rbf
gamma 1.50103e-05
nr_class 3
total_sv 5402
rho -80.298 -23.0066 33.6585
label -1 1 0
nr_sv 1576 1897 1929
SV
32.54124624298868 3284.006538066486 1:1 2:1 3:1 4:1 5:1 6:1 7:1 66619:1 
526.398273465604 2426.39072378624 306:1 307:1 308:1 309:1 310:1 311:1 312:1 313:1 314:1 315:1 316:1 317:1 318:1 319:1 320:1 321:1 322:1 323:1 324:1 325:1 326:1 327:1 
1887.122969639105 3861.955875061504 8:1 14:1 217:1 263:1 342:1 377:1 378:1 379:1 380:1 381:1 382:1 383:1 384:1 385:1 386:1 387:1 388:1 389:1 390:1 391:1 392:1 393:1 394:1 395:1 396:1 397:1 398:1 399:1 400:1 401:1 402:1 403:1 404:1 405:1 406:1 407:1 66612:4 
4418.448502273695 3700.164924453477 148:1 307:1 408:1 409:1 410:1 411:1 412:1 413:1 414:1 415:1 416:1 417:1 418:1 419:1 420:1 66612:2 
4071.52867512817 2510.728178004174 14:1 45:1 306:1 441:1 442:1 443:1 444:1 
687.6664405313197 1962.406948895307 14:1 45:1 51:1 193:1 200:1 203:1 204:1 474:1 475:1 476:1 477:1 478:1 479:1 480:1 481:1 482:1 483:1 484:1 485:1 486:1 487:1 488:1 489:1 490:1 491:1 492:1 
1366.880287519466 3043.774354502361 8:1 14:1 75:1 178:1 221:1 380:1 548:1 549:1 550:1 551:1 552:1 553:1 554:1 555:1 556:1 557:1 558:1 559:1 560:1 561:1 562:1 563:1 564:1 565:1 566:1 567:1 568:1 569:1 570:1 571:1 572:1 66612:4 
2071.067855053878 75.92809899970264 582:1 583:1 584:1 585:1 586:1 587:1 588:1 589:1 590:1 591:1 592:1 593:1 594:1 595:1 596:1 597:1 598:1 599:1 600:1 601:1 66612:4 
3639.048200869066 3762.376864106728 423:1 747:1 748:1 749:1 750:1 751:1 752:1 
3295.174754272407 4442.337393955082 896:1 897:1 898:1 899:1 900:1 901:1 902:1 903:1 904:1 905:1 66612:1 
7033.120260086238 7057.885426361751 906:1 907:1 908:1 909:1 910:1 66612:2 
1669.370220387232 1749.247043010719 14:1 45:1 51:1 104:1 193:1 203:1 382:1 574:1 747:1 885:1 1046:1 1047:1 1048:1 1049:1 1050:1 1051:1 1052:1 1053:1 1054:1 1055:1 1056:1 1057:1 1058:1 1059:1 1060:1 1061:1 1062:1 1063:1 1064:1 1065:1 1066:1 1067:1 1068:1 1069:1 1070:1 1071:1 1072:1 1073:1 1074:1 1075:1 1076:1 1077:1 1078:1 1079:1 1080:1 66612:3 66618:1 
3529.259895997867 3689.037351918617 14:1 45:1 140:1 382:1 613:1 631:1 740:1 1087:1 1088:1 1089:1 1090:1 1091:1 1092:1 1093:1 1094:1 1095:1 1096:1 1097:1 1098:1 1099:1 1100:1 1101:1 1102:1 1103:1 1104:1 1105:1 1106:1 1107:1 1108:1 66612:3 66618:1 66620:1 
1775.822902394156 3458.678647312603 14:1 45:1 755:1 939:1 1122:1 1123:1 1124:1 1125:1 1126:1 1127:1 1128:1 1129:1 1130:1 1131:1 1132:1 1133:1 1134:1 1135:1 1136:1 1137:1 1138:1 1139:1 1140:1 1141:1 1142:1 1143:1 1144:1 
0 1683.726886956586 14:1 45:1 827:1 1227:1 1228:1 1229:1 1230:1 1231:1 1232:1 1233:1 1234:1 1235:1 1236:1 1237:1 1238:1 1239:1 66612:1 
3229.654336219456 1748.993644128413 14:1 45:1 691:1 696:1 699:1 724:1 755:1 762:1 1240:1 1241:1 1242:1 1243:1 1244:1 1245:1 1246:1 1247:1 1248:1 1249:1 66612:1 66618:1 
1064.10924043362 1963.472209944244 8:1 14:1 106:1 172:1 193:1 493:1 955:1 1291:1 1292:1 1293:1 1294:1 1295:1 1296:1 1297:1 1298:1 1299:1 1300:1 1301:1 1302:1 1303:1 1304:1 1305:1 1306:1 1307:1 1308:1 1309:1 1310:1 1311:1 1312:1 1313:1 1314:1 1315:1 1316:1 1317:1 66612:7 
1332.577777920808 1660.527240968385 14:1 45:1 51:1 474:1 482:1 730:1 996:1 1032:1 1401:1 1402:1 1403:1 1404:1 1405:1 1406:1 1407:1 1408:1 1409:1 1410:1 1411:1 1412:1 1413:1 1414:1 1415:1 1416:1 1417:1 1418:1 1419:1 1420:1 66612:1 
1606.994001653846 2236.773326921797 769:1 1128:1 1550:1 1551:1 1552:1 1553:1 1554:1 1555:1 1556:1 1557:1 1558:1 1559:1 1560:1 1561:1 1562:1 1563:1 1564:1 1565:1 1566:1 66612:1 
741.5072942819127 803.206877222255 14:1 45:1 1567:1 1568:1 1569:1 1570:1 1571:1 1572:1 1573:1 1574:1 1575:1 1576:1 1577:1 1578:1 1579:1 1580:1 66612:2 
3361.395225860275 2282.983284767316 638:1 1408:1 1641:1 1642:1 1643:1 1644:1 1645:1 1646:1 1647:1 1648:1 1649:1 
0 220.7100001812766 691:1 769:1 774:1 939:1 1124:1 1128:1 1554:1 1682:1 1683:1 1684:1 1685:1 1686:1 1687:1 1688:1 1689:1 1690:1 1691:1 1692:1 1693:1 1694:1 1695:1 1696:1 1697:1 1698:1 1699:1 1700:1 1701:1 1702:1 1703:1 1704:1 1705:1 1706:1 1707:1 1708:1 1709:1 1710:1 1711:1 1712:1 1713:1 1714:1 1715:1 1716:1 1717:1 1718:1 1719:1 1720:1 1721:1 1722:1 1723:1 1724:1 1725:1 1726:1 1727:1 1728:1 1729:1 1730:1 1731:1 1732:1 1733:1 1734:1 1735:1 1736:1 1737:1 66612:3 
10252.7828643527 14915.2221261116 14:1 45:1 1749:1 1750:1 1751:1 1752:1 1753:1 1754:1 1755:1 1756:1 66612:1 
2318.122133638813 3028.800791985288 51:1 699:1 1757:1 1758:1 1759:1 1760:1 1761:1 1762:1 1763:1 1764:1 1765:1 1766:1 1767:1 1768:1 1769:1 1770:1 1771:1 1772:1 1773:1 1774:1 1775:1 1776:1 1777:1 1778:1 1779:1 66618:2 
434.7683298022881 0 684:1 769:1 1124:1 1815:1 1843:1 1844:1 1845:1 1846:1 1847:1 1848:1 1849:1 1850:1 1851:1 1852:1 1853:1 1854:1 1855:1 1856:1 1857:1 1858:1 1859:1 1860:1 1861:1 1862:1 1863:1 1864:1 1865:1 1866:1 1867:1 1868:1 1869:1 1870:1 1871:1 1872:1 1873:1 1874:1 1875:1 1876:1 1877:1 1878:1 1879:1 1880:1 1881:1 1882:1 1883:1 1884:1 1885:1 1886:1 1887:1 1888:1 1889:1 1890:1 1891:1 1892:1 1893:1 1894:1 1895:1 1896:1 1897:1 1898:1 1899:1 1900:1 1901:1 1902:1 1903:1 1904:1 1905:1 66612:1 
144.3198654208078 667.0363779803344 14:1 103:1 123:1 604:1 728:1 1644:1 2156:1 2157:1 2158:1 2159:1 2160:1 2161:1 2162:1 2163:1 2164:1 2165:1 2166:1 2167:1 2168:1 2169:1 2170:1 66612:2 
816.3524922973388 663.5823930219809 8:1 11:1 14:1 193:1 493:1 1091:1 1259:1 1845:1 2103:1 2196:1 2197:1 2198:1 2199:1 2200:1 2201:1 2202:1 2203:1 2204:1 2205:1 2206:1 2207:1 2208:1 2209:1 2210:1 2211:1 2212:1 2213:1 2214:1 2215:1 2216:1 2217:1 2218:1 2219:1 2220:1 2221:1 2222:1 2223:1 2224:1 2225:1 2226:1 66612:6 
1060.408939487518 1129.235578624443 14:1 45:1 104:1 193:1 203:1 204:1 205:1 1865:1 2048:1 2227:1 2228:1 2229:1 2230:1 2231:1 2232:1 2233:1 2234:1 2235:1 2236:1 2237:1 2238:1 2239:1 2240:1 2241:1 2242:1 2243:1 2244:1 2245:1 2246:1 66618:1 
8915.179556593195 10231.29910603068 14:1 45:1 74:1 85:1 1196:1 2179:1 2270:1 2271:1 2272:1 2273:1 2274:1 66612:2 
1605.212795592305 2550.581192929788 14:1 45:1 496:1 684:1 1046:1 1124:1 2018:1 2029:1 2427:1 2428:1 2429:1 2430:1 2431:1 2432:1 2433:1 2434:1 2435:1 2436:1 2437:1 2438:1 66612:1 
447.4230888082878 1302.080009582213 4:1 2133:1 2439:1 2440:1 2441:1 2442:1 2443:1 2444:1 2445:1 2446:1 2447:1 2448:1 2449:1 2450:1 2451:1 66612:1 66619:1 
1520.279777449504 978.582442421916 684:1 691:1 692:1 714:1 1128:1 2520:1 2521:1 2522:1 2523:1 2524:1 2525:1 2526:1 2527:1 2528:1 2529:1 
1572.32216826043 881.2601666218419 14:1 586:1 1870:1 2201:1 2530:1 2531:1 2532:1 2533:1 2534:1 2535:1 2536:1 2537:1 2538:1 2539:1 2540:1 2541:1 2542:1 2543:1 2544:1 2545:1 2546:1 2547:1 2548:1 2549:1 2550:1 2551:1 2552:1 2553:1 2554:1 2555:1 2556:1 2557:1 2558:1 66612:5 
307.3139537850978 0 684:1 689:1 694:1 695:1 755:1 939:1 1124:1 1857:1 1858:1 1860:1 2429:1 2591:1 2592:1 2593:1 2594:1 2595:1 2596:1 2597:1 2598:1 2599:1 2600:1 2601:1 2602:1 2603:1 2604:1 2605:1 2606:1 2607:1 2608:1 2609:1 2610:1 2611:1 2612:1 2613:1 2614:1 2615:1 2616:1 2617:1 2618:1 2619:1 2620:1 2621:1 2622:1 2623:1 2624:1 2625:1 2626:1 2627:1 2628:1 2629:1 2630:1 2631:1 2632:1 2633:1 2634:1 2635:1 2636:1 2637:1 2638:1 2639:1 2640:1 2641:1 2642:1 2643:1 2644:1 2645:1 2646:1 2647:1 2648:1 2649:1 2650:1 2651:1 2652:1 2653:1 2654:1 2655:1 2656:1 2657:1 2658:1 66612:2 
2910.406342648468 0 14:1 71:1 110:1 1081:1 1086:1 2788:1 2789:1 2790:1 2791:1 2792:1 2793:1 2794:1 2795:1 2796:1 2797:1 2798:1 66612:1 
1247.772641075731 5122.747934337051 148:1 306:1 1401:1 1572:1 2442:1 2443:1 2449:1 2799:1 2800:1 2801:1 2802:1 2803:1 66612:1 
1390.510222562708 670.9946527882535 11:1 14:1 45:1 98:1 161:1 439:1 610:1 684:1 1046:1 1858:1 2019:1 2260:1 2595:1 2693:1 2766:1 2804:1 2805:1 2806:1 2807:1 2808:1 2809:1 2810:1 2811:1 2812:1 2813:1 2814:1 2815:1 2816:1 2817:1 2818:1 2819:1 2820:1 2821:1 2822:1 2823:1 2824:1 2825:1 2826:1 2827:1 2828:1 2829:1 2830:1 2831:1 2832:1 2833:1 2834:1 2835:1 66612:2 
1803.808727679528 3294.615507177116 14:1 19:1 266:1 2791:1 2836:1 2837:1 2838:1 2839:1 2840:1 2841:1 2842:1 2843:1 2844:1 2845:1 2846:1 2847:1 2848:1 2849:1 2850:1 66612:4 
0 96.18285601811009 14:1 45:1 196:1 330:1 334:1 586:1 823:1 997:1 1034:1 1251:1 1688:1 2595:1 2851:1 2852:1 2853:1 2854:1 2855:1 2856:1 2857:1 2858:1 2859:1 2860:1 2861:1 2862:1 2863:1 2864:1 2865:1 2866:1 2867:1 2868:1 2869:1 2870:1 2871:1 2872:1 2873:1 2874:1 2875:1 2876:1 2877:1 2878:1 2879:1 2880:1 2881:1 2882:1 2883:1 2884:1 2885:1 2886:1 2887:1 2888:1 2889:1 2890:1 2891:1 2892:1 2893:1 2894:1 2895:1 2896:1 2897:1 2898:1 2899:1 2900:1 2901:1 2902:1 2903:1 2904:1 2905:1 2906:1 2907:1 2908:1 2909:1 2910:1 2911:1 2912:1 2913:1 2914:1 66612:2 
802.2538540087454 2107.653527577768 11:1 14:1 77:1 106:1 193:1 204:1 951:1 1200:1 2980:1 2981:1 2982:1 2983:1 2984:1 2985:1 2986:1 2987:1 2988:1 2989:1 2990:1 2991:1 2992:1 2993:1 2994:1 2995:1 2996:1 2997:1 2998:1 2999:1 3000:1 3001:1 3002:1 3003:1 3004:1 3005:1 3006:1 66612:7 
5638.755275697443 4177.642469872897 755:1 1688:1 1815:1 3086:1 3087:1 3088:1 3089:1 3090:1 3091:1 3092:1 
724.8557416147908 149.6311016695679 14:1 684:1 776:1 777:1 1128:1 1130:1 2430:1 3121:1 3122:1 3123:1 3124:1 3125:1 3126:1 3127:1 3128:1 3129:1 3130:1 3131:1 3132:1 3133:1 3134:1 3135:1 3136:1 3137:1 3138:1 3139:1 3140:1 3141:1 3142:1 3143:1 3144:1 3145:1 3146:1 3147:1 3148:1 66612:1 
683.9837553023324 1471.643063724486 11:1 14:1 45:1 334:1 342:1 435:1 455:1 1546:1 3149:1 3150:1 3151:1 3152:1 3153:1 3154:1 3155:1 3156:1 3157:1 3158:1 3159:1 3160:1 3161:1 3162:1 3163:1 3164:1 66612:3 
4315.44822146952 6430.437548663951 14:1 45:1 145:1 193:1 203:1 204:1 2153:1 3202:1 3203:1 3204:1 3205:1 3206:1 3207:1 3208:1 3209:1 3210:1 3211:1 
1217.10179095331 118.4274570381065 11:1 14:1 496:1 1939:1 3222:1 3223:1 3224:1 3225:1 3226:1 3227:1 3228:1 3229:1 3230:1 3231:1 3232:1 3233:1 3234:1 3235:1 3236:1 66612:3 
1985.23021594893 2056.988278843335 689:1 755:1 2228:1 2595:1 2932:1 3237:1 3238:1 3239:1 3240:1 3241:1 3242:1 3243:1 3244:1 3245:1 3246:1 3247:1 3248:1 3249:1 3250:1 3251:1 3252:1 3253:1 3254:1 
3483.917645162822 2554.210100963037 11:1 14:1 45:1 114:1 684:1 1749:1 3331:1 3332:1 3333:1 3334:1 3335:1 3336:1 3337:1 3338:1 3339:1 3340:1 3341:1 3342:1 3343:1 66612:1 
295.7388042634253 815.2367464699936 14:1 77:1 278:1 413:1 521:1 797:1 1582:1 1641:1 2257:1 3344:1 3345:1 3346:1 3347:1 3348:1 3349:1 3350:1 3351:1 3352:1 3353:1 3354:1 3355:1 3356:1 3357:1 3358:1 3359:1 3360:1 3361:1 3362:1 3363:1 3364:1 3365:1 3366:1 3367:1 3368:1 3369:1 3370:1 3371:1 3372:1 3373:1 3374:1 3375:1 3376:1 3377:1 66612:7 66618:1 
3758.185266945037 1489.634060657615 14:1 154:1 728:1 1782:1 3378:1 3379:1 3380:1 3381:1 3382:1 3383:1 3384:1 3385:1 3386:1 3387:1 3388:1 3389:1 
4734.779002269238 6885.158292756096 103:1 3441:1 3442:1 3443:1 3444:1 3445:1 3446:1 66612:1 66614:0.13636364 66616:0.13636364 
5376.54024293761 4423.063160922964 3482:1 3483:1 3484:1 3485:1 3486:1 3487:1 3488:1 3489:1 3490:1 66612:2 
2127.350563127607 2305.679988858854 82:1 196:1 351:1 725:1 3491:1 3492:1 3493:1 3494:1 3495:1 3496:1 3497:1 
13253.83710295453 15393.55448092498 3498:1 3499:1 3500:1 
5135.531798222131 1365.072674027292 684:1 691:1 1551:1 1693:1 2304:1 2429:1 2437:1 3199:1 3501:1 3502:1 3503:1 3504:1 3505:1 
1522.153793446421 1227.781158889216 351:1 493:1 1091:1 1655:1 3276:1 3525:1 3526:1 3527:1 3528:1 3529:1 3530:1 3531:1 3532:1 3533:1 3534:1 3535:1 3536:1 3537:1 3538:1 3539:1 3540:1 3541:1 3542:1 3543:1 3544:1 66612:5 
8421.508006752307 10985.31262898082 3586:1 3587:1 3588:1 3589:1 
4317.212613237376 6321.992901622334 613:1 981:1 2321:1 3887:1 3888:1 3889:1 3890:1 3891:1 3892:1 3893:1 3894:1 66612:1 66620:1 
6733.688926660906 6476.363594503598 699:1 2427:1 3895:1 3896:1 3897:1 3898:1 3899:1 3900:1 3901:1 3902:1 3903:1 66612:1 66618:1 
3049.71331735301 2165.714592642911 11:1 109:1 341:1 388:1 1000:1 2111:1 2987:1 3904:1 3905:1 3906:1 3907:1 3908:1 3909:1 3910:1 3911:1 3912:1 3913:1 3914:1 3915:1 3916:1 3917:1 3918:1 3919:1 3920:1 3921:1 3922:1 3923:1 3924:1 3925:1 3926:1 66612:9 
434.2686040382065 0 11:1 145:1 1034:1 3976:1 3977:1 3978:1 3979:1 3980:1 3981:1 3982:1 3983:1 3984:1 3985:1 3986:1 3987:1 3988:1 3989:1 66612:1 
2645.329859745795 4654.754593454163 82:1 106:1 193:1 277:1 388:1 1227:1 1257:1 1272:1 1610:1 2248:1 2253:1 2320:1 4058:1 4059:1 4060:1 4061:1 4062:1 4063:1 4064:1 4065:1 4066:1 4067:1 4068:1 4069:1 4070:1 4071:1 4072:1 66612:7 
915.4893459594683 234.8667832079599 11:1 14:1 45:1 114:1 412:1 684:1 1124:1 1554:1 2435:1 3042:1 3498:1 4141:1 4142:1 4143:1 4144:1 4145:1 4146:1 4147:1 4148:1 4149:1 4150:1 4151:1 4152:1 4153:1 4154:1 4155:1 4156:1 4157:1 4158:1 4159:1 4160:1 4161:1 4162:1 4163:1 4164:1 4165:1 4166:1 4167:1 66612:2 
1299.072249951708 1897.749428552826 11:1 193:1 200:1 328:1 1568:1 2255:1 2256:1 2812:1 2949:1 3257:1 4262:1 4263:1 4264:1 4265:1 4266:1 4267:1 4268:1 4269:1 4270:1 4271:1 4272:1 4273:1 4274:1 4275:1 4276:1 4277:1 4278:1 4279:1 4280:1 4281:1 4282:1 4283:1 4284:1 4285:1 4286:1 4287:1 4288:1 4289:1 4290:1 4291:1 4292:1 4293:1 4294:1 4295:1 66612:2 
5442.368226755888 5395.05496753696 14:1 45:1 307:1 4349:1 4350:1 4351:1 4352:1 4353:1 
607.1744835434922 522.0794623316506 677:1 777:1 1127:1 1128:1 1140:1 1554:1 2048:1 4354:1 4355:1 4356:1 4357:1 4358:1 4359:1 4360:1 4361:1 4362:1 4363:1 4364:1 4365:1 
5760.703504742333 7054.952966407678 145:1 310:1 613:1 4366:1 4367:1 4368:1 4369:1 4370:1 4371:1 4372:1 4373:1 66620:1 
12913.45560999267 11442.6039765618 4469:1 4470:1 4471:1 66612:1 
4710.709485776978 7402.473510875041 14:1 45:1 2810:1 4477:1 4478:1 4479:1 4480:1 4481:1 66612:1 
5236.64968088087 1185.265594904091 14:1 45:1 98:1 412:1 749:1 3956:1 3957:1 3973:1 4482:1 4483:1 4484:1 4485:1 4486:1 4487:1 4488:1 4489:1 66612:1 
478.9323999555216 1658.455875928075 4:1 11:1 174:1 548:1 698:1 2969:1 4546:1 4547:1 4548:1 4549:1 4550:1 4551:1 4552:1 4553:1 4554:1 66612:3 66619:1 
1099.44539491172 1908.307964534117 14:1 82:1 310:1 1441:1 1915:1 4555:1 4556:1 4557:1 4558:1 4559:1 4560:1 4561:1 4562:1 4563:1 4564:1 
2329.921525665374 0 14:1 45:1 193:1 203:1 204:1 521:1 1221:1 1786:1 4689:1 4690:1 4691:1 4692:1 4693:1 4694:1 4695:1 4696:1 4697:1 4698:1 4699:1 4700:1 4701:1 4702:1 66612:1 66618:1 
2482.819639640988 974.3553362835412 14:1 493:1 1251:1 1266:1 1357:1 1600:1 4748:1 4749:1 4750:1 4751:1 4752:1 4753:1 4754:1 4755:1 4756:1 4757:1 4758:1 4759:1 4760:1 4761:1 4762:1 4763:1 4764:1 4765:1 4766:1 4767:1 4768:1 4769:1 4770:1 66612:2 
988.9007713957614 2702.704854502307 200:1 354:1 4180:1 4845:1 4846:1 4847:1 4848:1 4849:1 4850:1 
360.7251580141004 0 14:1 45:1 684:1 689:1 693:1 1124:1 1860:1 2053:1 2435:1 2595:1 3125:1 4851:1 4852:1 4853:1 4854:1 4855:1 4856:1 4857:1 4858:1 4859:1 4860:1 4861:1 4862:1 4863:1 4864:1 4865:1 4866:1 4867:1 
835.0656611918753 806.7615892293766 585:1 586:1 1845:1 3659:1 4870:1 4962:1 4963:1 4964:1 4965:1 4966:1 4967:1 4968:1 4969:1 4970:1 4971:1 4972:1 4973:1 4974:1 4975:1 4976:1 4977:1 4978:1 4979:1 4980:1 4981:1 4982:1 4983:1 4984:1 4985:1 4986:1 4987:1 4988:1 4989:1 4990:1 66612:3 
105.2996393991399 313.2297441144665 14:1 45:1 695:1 757:1 774:1 777:1 1128:1 1164:1 2305:1 2592:1 5081:1 5082:1 5083:1 5084:1 5085:1 5086:1 5087:1 5088:1 5089:1 5090:1 5091:1 5092:1 5093:1 5094:1 5095:1 5096:1 5097:1 5098:1 5099:1 5100:1 5101:1 5102:1 5103:1 5104:1 
2920.841810651546 2350.680724923224 11:1 14:1 45:1 193:1 204:1 344:1 388:1 445:1 1837:1 3061:1 3075:1 5131:1 5132:1 5133:1 5134:1 5135:1 5136:1 5137:1 5138:1 5139:1 5140:1 5141:1 5142:1 5143:1 5144:1 66612:6 
0 1248.826812246258 14:1 106:1 145:1 195:1 613:1 684:1 689:1 1124:1 2435:1 5145:1 5146:1 5147:1 5148:1 5149:1 5150:1 5151:1 5152:1 5153:1 5154:1 5155:1 5156:1 5157:1 5158:1 5159:1 5160:1 5161:1 5162:1 5163:1 5164:1 66612:1 66620:1 
2431.405102850575 247.8122927574121 14:1 2119:1 5207:1 5208:1 5209:1 5210:1 5211:1 5212:1 5213:1 5214:1 5215:1 5216:1 5217:1 5218:1 5219:1 5220:1 5221:1 5222:1 66612:3 
4620.339928762099 3664.310678318015 14:1 45:1 145:1 382:1 438:1 604:1 699:1 724:1 997:1 1637:1 2853:1 3761:1 5248:1 5249:1 5250:1 5251:1 5252:1 5253:1 5254:1 5255:1 5256:1 5257:1 5258:1 5259:1 5260:1 5261:1 5262:1 5263:1 66612:2 66618:1 66620:1 
2316.853017864631 741.9613322970027 693:1 774:1 939:1 1128:1 2229:1 5264:1 5265:1 5266:1 5267:1 5268:1 5269:1 5270:1 5271:1 5272:1 5273:1 66612:1 
65.45310170735621 887.3785267311505 8:1 14:1 110:1 193:1 217:1 1361:1 1473:1 1536:1 5274:1 5277:1 5278:1 5279:1 5280:1 5281:1 5282:1 5283:1 5284:1 5285:1 5286:1 5287:1 5288:1 5289:1 5290:1 5291:1 5292:1 5293:1 5294:1 5295:1 5296:1 5297:1 5298:1 5299:1 5300:1 
6706.880627252509 4573.292451711706 82:1 2812:1 5337:1 5338:1 5339:1 5340:1 5341:1 
1734.426712027256 3499.412308217683 14:1 684:1 689:1 939:1 1170:1 4242:1 5342:1 5343:1 5344:1 5345:1 5346:1 5347:1 5348:1 
0 213.9009292716733 11:1 14:1 45:1 413:1 994:1 1791:1 3957:1 4183:1 5503:1 5504:1 5505:1 5506:1 5507:1 5508:1 5509:1 5510:1 5511:1 5512:1 5513:1 5514:1 5515:1 5516:1 5517:1 5518:1 5519:1 5520:1 5521:1 5522:1 5523:1 5524:1 5525:1 5526:1 5527:1 66612:2 
1904.679694320706 3007.69775752948 11:1 14:1 15:1 1030:1 1480:1 2012:1 3994:1 5629:1 5630:1 5631:1 5632:1 5633:1 5634:1 5635:1 5636:1 5637:1 5638:1 5639:1 5640:1 5641:1 5642:1 5643:1 66612:2 
228.2077107903863 0 684:1 769:1 939:1 1128:1 1857:1 2861:1 3173:1 5266:1 5688:1 5689:1 5690:1 5691:1 5692:1 5693:1 5694:1 5695:1 5696:1 5697:1 5698:1 5699:1 5700:1 5701:1 5702:1 5703:1 5704:1 5705:1 5706:1 5707:1 5708:1 5709:1 5710:1 5711:1 5712:1 5713:1 5714:1 5715:1 5716:1 5717:1 5718:1 5719:1 5720:1 5721:1 5722:1 5723:1 5724:1 5725:1 5726:1 5727:1 5728:1 5729:1 5730:1 5731:1 5732:1 66612:4 
6406.37668264024 10762.04106882878 997:1 3808:1 5167:1 5822:1 5823:1 5824:1 5825:1 
2157.527786162771 0 14:1 45:1 193:1 204:1 2126:1 2812:1 5826:1 5827:1 5828:1 5829:1 5830:1 5831:1 5832:1 5833:1 5834:1 5835:1 5836:1 5837:1 5838:1 5839:1 66612:1 
3884.69274879052 3529.113863371783 14:1 45:1 193:1 204:1 389:1 1035:1 3808:1 5845:1 5846:1 5847:1 5848:1 5849:1 5850:1 5851:1 5852:1 5853:1 5854:1 66620:1 
2714.960298706339 3882.241273162264 60:1 61:1 67:1 613:1 725:1 3981:1 4031:1 5889:1 5890:1 5891:1 5892:1 5893:1 5894:1 5895:1 5896:1 5897:1 66612:2 66620:1 
333.5277535511698 231.8520682435135 586:1 684:1 689:1 939:1 1260:1 1282:1 1531:1 1540:1 2430:1 2438:1 3659:1 5916:1 5917:1 5918:1 5919:1 5920:1 5921:1 5922:1 5923:1 5924:1 5925:1 5926:1 5927:1 5928:1 5929:1 5930:1 66612:1 
0 1342.212890567773 14:1 994:1 1221:1 5942:1 5943:1 5944:1 5945:1 5946:1 5947:1 5948:1 5949:1 5950:1 5951:1 66612:1 
444.8490879311419 0 585:1 684:1 1128:1 1164:1 1693:1 1857:1 2307:1 2385:1 2521:1 4081:1 6133:1 6134:1 6135:1 6136:1 6137:1 6138:1 6139:1 6140:1 6141:1 6142:1 6143:1 6144:1 6145:1 6146:1 6147:1 6148:1 6149:1 6150:1 6151:1 6152:1 6153:1 6154:1 6155:1 
1251.780948221563 141.5005357435481 14:1 45:1 755:1 939:1 1124:1 1130:1 2305:1 2435:1 3037:1 4077:1 4092:1 4297:1 6208:1 6209:1 6210:1 6211:1 6212:1 6213:1 6214:1 6215:1 6216:1 6217:1 6218:1 6219:1 6220:1 6221:1 6222:1 6223:1 6224:1 6225:1 6226:1 6227:1 6228:1 6229:1 6230:1 6231:1 6232:1 6233:1 6234:1 6235:1 66612:4 
2945.600620662186 3214.410219320486 14:1 226:1 2443:1 3096:1 4727:1 4773:1 6261:1 6262:1 6263:1 6264:1 6265:1 6266:1 6267:1 6268:1 6269:1 6270:1 6271:1 6272:1 6273:1 66612:3 
3081.775283087585 1838.62783452791 11:1 408:1 1034:1 6254:1 6325:1 6326:1 6327:1 6328:1 6329:1 6330:1 6331:1 6332:1 6333:1 6334:1 6335:1 6336:1 66612:1 
2156.173512816095 23801.30816432466 8:1 14:1 342:1 548:1 4216:1 4217:1 4235:1 4501:1 4785:1 6347:1 6348:1 6349:1 6350:1 6351:1 6352:1 6353:1 6354:1 6355:1 6356:1 6357:1 6358:1 6359:1 6360:1 6361:1 6362:1 6363:1 6364:1 6365:1 66612:4 
740.2158897739835 54.20122790545551 11:1 14:1 45:1 245:1 590:1 686:1 697:1 1227:1 1251:1 1594:1 1815:1 2985:1 3092:1 4207:1 6403:1 6404:1 6405:1 6406:1 6407:1 6408:1 6409:1 6410:1 6411:1 6412:1 6413:1 6414:1 6415:1 6416:1 6417:1 6418:1 6419:1 6420:1 6421:1 6422:1 6423:1 6424:1 6425:1 6426:1 6427:1 6428:1 6429:1 6430:1 6431:1 6432:1 6433:1 6434:1 6435:1 66612:5 
5814.444815587367 3539.597005776537 307:1 1642:1 3531:1 5857:1 6471:1 6472:1 6473:1 6474:1 6475:1 66618:1 
3578.961127979976 1474.345345167616 14:1 4183:1 4202:1 6480:1 6481:1 6482:1 6483:1 66612:1 
3649.343824090086 3494.623468514501 1252:1 6484:1 6485:1 6486:1 6487:1 6488:1 6489:1 6490:1 6491:1 6492:1 6493:1 66612:5 
3832.219356897382 2527.029544134656 193:1 195:1 351:1 728:1 2812:1 6520:1 6521:1 6522:1 6523:1 6524:1 6525:1 6526:1 6527:1 6528:1 6529:1 
0 834.5155427474295 11:1 14:1 45:1 354:1 413:1 684:1 1632:1 1858:1 2229:1 4330:1 5803:1 6530:1 6531:1 6532:1 6533:1 6534:1 6535:1 6536:1 6537:1 6538:1 6539:1 6540:1 6541:1 6542:1 6543:1 6544:1 6545:1 6546:1 6547:1 6548:1 6549:1 6550:1 6551:1 6552:1 6553:1 6554:1 6555:1 6556:1 6557:1 6558:1 
8543.820206937258 8060.65517078314 613:1 3257:1 6559:1 6560:1 6561:1 6562:1 6563:1 66620:1 
1845.074054649029 1649.775093853489 14:1 22:1 45:1 70:1 5376:1 6650:1 6651:1 6652:1 6653:1 6654:1 6655:1 6656:1 6657:1 6658:1 6659:1 6660:1 6661:1 6662:1 6663:1 6664:1 6665:1 6666:1 6667:1 6668:1 6669:1 6670:1 6671:1 6672:1 6673:1 6674:1 66612:3 
3460.446604927406 2337.416008242107 693:1 1973:1 3165:1 3166:1 3168:1 6679:1 6680:1 6681:1 6682:1 6683:1 6684:1 6685:1 6686:1 6687:1 6688:1 6689:1 6690:1 6691:1 6692:1 6693:1 66612:2 66618:1 
686.8906174065449 2416.142224972595 4:1 8:1 14:1 1869:1 4450:1 6102:1 6790:1 6791:1 6792:1 6793:1 6794:1 6795:1 6796:1 66612:4 66619:1 
6840.502540172772 5879.496213624965 1953:1 3152:1 6928:1 6929:1 6930:1 6931:1 6932:1 66612:1 
7796.897235981502 7800.848629048202 106:1 152:1 341:1 613:1 1581:1 1582:1 1586:1 1633:1 5326:1 5330:1 6933:1 6934:1 6935:1 6936:1 6937:1 6938:1 66612:5 66620:1 
397.4446852112476 15.57229512831046 14:1 45:1 153:1 273:1 604:1 618:1 647:1 896:1 1228:1 2923:1 4796:1 5811:1 6939:1 6940:1 6941:1 6942:1 6943:1 6944:1 6945:1 6946:1 6947:1 6948:1 6949:1 6950:1 6951:1 6952:1 6953:1 6954:1 6955:1 6956:1 6957:1 6958:1 6959:1 6960:1 6961:1 66612:1 
3257.282397561921 1867.535498979564 145:1 200:1 351:1 374:1 885:1 6998:1 6999:1 7000:1 7001:1 7002:1 7003:1 7004:1 7005:1 7006:1 7007:1 7008:1 7009:1 
2846.030958009014 4011.413909294462 14:1 45:1 307:1 1150:1 1159:1 4578:1 7010:1 7011:1 7012:1 7013:1 66612:1 
11596.43545711012 14696.2828522985 5306:1 7014:1 7015:1 
10594.27956820974 11639.31636312816 2791:1 7016:1 7017:1 66612:1 
470.5650726056014 660.5089613575997 11:1 14:1 45:1 71:1 104:1 110:1 161:1 351:1 803:1 1081:1 1086:1 3276:1 3527:1 4174:1 4339:1 5185:1 5329:1 5503:1 6031:1 6167:1 6195:1 6496:1 6857:1 7068:1 7069:1 7070:1 7071:1 7072:1 7073:1 7074:1 7075:1 7076:1 7077:1 7078:1 7079:1 7080:1 7081:1 7082:1 7083:1 7084:1 7085:1 7086:1 7087:1 7088:1 7089:1 7090:1 7091:1 7092:1 7093:1 7094:1 7095:1 7096:1 7097:1 7098:1 7099:1 7100:1 7101:1 7102:1 7103:1 7104:1 7105:1 66612:4 
1413.155258394128 897.2752782986189 684:1 691:1 692:1 693:1 714:1 715:1 757:1 1857:1 2970:1 7116:1 7117:1 7118:1 7119:1 7120:1 7121:1 7122:1 7123:1 
28729.90413916374 32660.60486076432 1573:1 
1282.15316095268 852.5656887814024 14:1 45:1 691:1 755:1 762:1 771:1 1169:1 2048:1 3774:1 5426:1 7205:1 7206:1 7207:1 7208:1 7209:1 7210:1 7211:1 7212:1 7213:1 7214:1 7215:1 7216:1 7217:1 7218:1 7219:1 7220:1 7221:1 7222:1 66612:1 
2994.852160406501 3329.441412499475 11:1 14:1 45:1 152:1 613:1 1035:1 1045:1 1048:1 1221:1 1633:1 1749:1 2017:1 2439:1 4535:1 6935:1 7223:1 7224:1 7225:1 7226:1 7227:1 7228:1 7229:1 7230:1 7231:1 7232:1 7233:1 7234:1 7235:1 66612:2 66620:2 
3076.610071537656 2581.176904625841 684:1 3166:1 7338:1 7339:1 7340:1 7341:1 7342:1 7343:1 7344:1 
2446.813925845878 29.97202866899397 14:1 45:1 105:1 145:1 389:1 4330:1 4795:1 7390:1 7391:1 7392:1 7393:1 7394:1 7395:1 7396:1 7397:1 7398:1 66619:1 
12914.16728175651 12207.51645271389 7416:1 7417:1 7418:1 66612:1 
5314.845564953467 6865.90710049111 14:1 51:1 1758:1 1767:1 2102:1 7425:1 7426:1 7427:1 7428:1 7429:1 7430:1 
3526.168874078457 2698.168501010925 14:1 45:1 176:1 435:1 699:1 1029:1 1379:1 1493:1 1502:1 1572:1 1579:1 2159:1 3083:1 4557:1 7431:1 7432:1 7433:1 7434:1 7435:1 7436:1 7437:1 7438:1 7439:1 7440:1 7441:1 7442:1 7443:1 7444:1 7445:1 7446:1 7447:1 66612:2 66618:1 
2688.113336180176 2350.674941728858 755:1 1164:1 1554:1 7458:1 7459:1 7460:1 7461:1 7462:1 7463:1 7464:1 7465:1 7466:1 7467:1 7468:1 7469:1 
2328.426306037508 1740.497679485713 14:1 45:1 70:1 193:1 266:1 3226:1 7470:1 7471:1 7472:1 7473:1 7474:1 7475:1 7476:1 7477:1 7478:1 7479:1 7480:1 7481:1 66612:3 
1527.350222610969 1978.954256433383 11:1 14:1 45:1 104:1 263:1 493:1 551:1 951:1 1514:1 1653:1 4182:1 5283:1 5734:1 7482:1 7483:1 7484:1 7485:1 7486:1 7487:1 7488:1 7489:1 7490:1 7491:1 7492:1 7493:1 7494:1 7495:1 7496:1 7497:1 7498:1 7499:1 7500:1 66612:3 
6457.810587902011 830.4078136331697 145:1 193:1 204:1 728:1 2159:1 4657:1 7553:1 7554:1 7555:1 7556:1 
5663.191499237184 3572.817995781513 14:1 45:1 51:1 145:1 613:1 885:1 3430:1 4537:1 6835:1 7577:1 7578:1 7579:1 7580:1 7581:1 7582:1 7583:1 7584:1 7585:1 7586:1 7587:1 66620:1 
0 806.4247535688411 14:1 16:1 45:1 106:1 128:1 129:1 167:1 850:1 3300:1 3625:1 3637:1 7588:1 7589:1 7590:1 7591:1 7592:1 7593:1 7594:1 7595:1 7596:1 7597:1 7598:1 7599:1 7600:1 66612:1 
4874.987555001467 5224.556124984043 15:1 193:1 204:1 223:1 1318:1 3299:1 7610:1 7611:1 7612:1 7613:1 7614:1 7615:1 7616:1 7617:1 66612:2 
2102.394626304218 2036.793816875215 14:1 45:1 479:1 7651:1 7652:1 7653:1 7654:1 7655:1 7656:1 7657:1 7658:1 7659:1 7660:1 7661:1 7662:1 7663:1 7664:1 7665:1 7666:1 
7922.412188357444 2982.413760004986 14:1 56:1 137:1 192:1 5647:1 7682:1 7683:1 7684:1 7685:1 7686:1 7687:1 66612:3 
1797.626913809831 300000 14:1 45:1 51:1 200:1 492:1 1152:1 2806:1 7737:1 7738:1 7739:1 7740:1 7741:1 7742:1 7743:1 66619:1 
2100.885560880361 6749.296510988158 11:1 109:1 382:1 388:1 2111:1 4931:1 7754:1 7755:1 7756:1 7757:1 7758:1 7759:1 7760:1 7761:1 7762:1 7763:1 7764:1 66612:1 
3507.146797902642 3250.55072464002 8:1 226:1 699:1 796:1 1295:1 3151:1 7817:1 7818:1 7819:1 7820:1 7821:1 7822:1 7823:1 7824:1 7825:1 7826:1 7827:1 7828:1 7829:1 7830:1 7831:1 7832:1 7833:1 7834:1 7835:1 66612:2 66618:1 
3034.054550265996 1649.714812876718 11:1 14:1 45:1 193:1 204:1 997:1 1032:1 1041:1 1651:1 1749:1 1782:1 2503:1 3152:1 3316:1 7878:1 7879:1 7880:1 7881:1 7882:1 7883:1 7884:1 7885:1 7886:1 7887:1 7888:1 7889:1 7890:1 7891:1 7892:1 7893:1 7894:1 7895:1 66612:1 
189.6928485525023 457.7246824077088 14:1 1199:1 1212:1 1252:1 1260:1 1845:1 2230:1 3659:1 7924:1 7925:1 7926:1 7927:1 7928:1 7929:1 7930:1 7931:1 7932:1 7933:1 7934:1 7935:1 7936:1 7937:1 7938:1 7939:1 7940:1 7941:1 7942:1 7943:1 7944:1 7945:1 7946:1 7947:1 7948:1 7949:1 7950:1 7951:1 7952:1 7953:1 7954:1 66612:6 
1380.88434592104 809.0205856698951 14:1 45:1 58:1 310:1 2279:1 2503:1 3203:1 3333:1 4302:1 7955:1 7956:1 7957:1 7958:1 7959:1 7960:1 7961:1 7962:1 7963:1 7964:1 7965:1 7966:1 7967:1 7968:1 7969:1 66612:2 
2529.278662376029 4351.042713634174 14:1 45:1 71:1 2508:1 4239:1 8024:1 8025:1 8026:1 
6956.773875306464 3990.783388774588 590:1 1252:1 7266:1 8095:1 8096:1 8097:1 8098:1 66612:6 
1226.838813166966 859.0905788886373 423:1 981:1 1034:1 7578:1 8099:1 8100:1 8101:1 8102:1 8103:1 8104:1 8105:1 66612:3 66614:0.13636364 66616:0.13636364 
1777.229375820357 2054.798553331506 11:1 548:1 914:1 3413:1 4060:1 6745:1 8107:1 8108:1 8109:1 8110:1 8111:1 8112:1 8113:1 8114:1 8115:1 8116:1 8117:1 8118:1 8119:1 8120:1 8121:1 8122:1 8123:1 8124:1 8125:1 8126:1 8127:1 66612:4 
483.1490769011496 1783.514466384529 14:1 104:1 172:1 548:1 1196:1 2102:1 2248:1 5743:1 8158:1 8159:1 8160:1 8161:1 8162:1 8163:1 8164:1 8165:1 8166:1 8167:1 8168:1 8169:1 8170:1 8171:1 8172:1 8173:1 8174:1 8175:1 8176:1 8177:1 8178:1 8179:1 66612:2 66618:1 
944.4397740390335 1843.935013661476 14:1 45:1 140:1 586:1 588:1 613:1 631:1 693:1 774:1 1130:1 1164:1 1169:1 1685:1 3127:1 3448:1 7424:1 8180:1 8181:1 8182:1 8183:1 8184:1 8185:1 8186:1 8187:1 8188:1 8189:1 8190:1 8191:1 8192:1 8193:1 8194:1 8195:1 8196:1 8197:1 8198:1 8199:1 8200:1 8201:1 8202:1 8203:1 8204:1 8205:1 8206:1 8207:1 66612:3 66618:1 66620:1 
1043.953524036165 0 14:1 749:1 1124:1 1554:1 1815:1 2048:1 2308:1 2435:1 8208:1 8209:1 8210:1 8211:1 8212:1 8213:1 8214:1 8215:1 8216:1 8217:1 8218:1 
3902.844400038111 4316.760559859675 6254:1 7157:1 8226:1 8227:1 8228:1 8229:1 8230:1 8231:1 8232:1 
1566.03787753568 2214.839069610581 11:1 14:1 45:1 226:1 455:1 473:1 981:1 3061:1 3062:1 3075:1 3076:1 8233:1 8234:1 8235:1 8236:1 8237:1 8238:1 8239:1 8240:1 8241:1 8242:1 8243:1 8244:1 8245:1 8246:1 8247:1 8248:1 8249:1 8250:1 8251:1 8252:1 8253:1 8254:1 8255:1 66612:2 
1303.019899173622 665.290110121822 11:1 493:1 583:1 590:1 1600:1 1604:1 1845:1 5308:1 5309:1 5316:1 5670:1 8282:1 8283:1 8284:1 8285:1 8286:1 8287:1 8288:1 8289:1 8290:1 8291:1 8292:1 8293:1 8294:1 8295:1 66612:3 
497.0434849303256 507.9304642948468 14:1 45:1 684:1 1124:1 1554:1 1857:1 2435:1 3338:1 8400:1 8401:1 8402:1 8403:1 8404:1 8405:1 8406:1 8407:1 8408:1 8409:1 8410:1 8411:1 8412:1 66612:1 
2894.440344961675 4121.804346019087 8:1 14:1 172:1 178:1 842:1 862:1 1907:1 3413:1 3994:1 4946:1 5779:1 5789:1 7765:1 8417:1 8418:1 8419:1 8420:1 8421:1 8422:1 8423:1 8424:1 8425:1 8426:1 8427:1 8428:1 8429:1 8430:1 8431:1 66612:2 
5826.894638080104 4151.214826998452 2137:1 5376:1 5999:1 8461:1 8462:1 8463:1 8464:1 8465:1 8466:1 8467:1 8468:1 
6434.831192946038 8867.202483610314 885:1 4472:1 8654:1 8655:1 8656:1 8657:1 8658:1 8659:1 8660:1 66612:1 
416.5277378134992 769.1422119599533 8:1 14:1 45:1 106:1 1318:1 1655:1 3912:1 4664:1 7434:1 7444:1 8665:1 8666:1 8667:1 8668:1 8669:1 8670:1 8671:1 8672:1 8673:1 8674:1 8675:1 8676:1 8677:1 8678:1 8679:1 8680:1 8681:1 8682:1 8683:1 8684:1 8685:1 8686:1 8687:1 66612:2 
2077.242125941923 3117.015537857041 145:1 193:1 328:1 1810:1 2134:1 2838:1 8762:1 8763:1 8764:1 8765:1 8766:1 8767:1 8768:1 8769:1 8770:1 8771:1 8772:1 
0 258.6521371373977 4:1 14:1 728:1 2133:1 2693:1 3413:1 4217:1 5508:1 8773:1 8774:1 8775:1 8776:1 8777:1 8778:1 8779:1 8780:1 8781:1 8782:1 8783:1 8784:1 8785:1 8786:1 8787:1 8788:1 8789:1 8790:1 8791:1 8792:1 66612:1 66619:1 
1208.202646480264 1702.595494063674 693:1 755:1 939:1 1136:1 1554:1 2041:1 2069:1 4904:1 5468:1 8834:1 8835:1 8836:1 8837:1 8838:1 8839:1 8840:1 8841:1 8842:1 8843:1 8844:1 8845:1 8846:1 8847:1 8848:1 8849:1 8850:1 8851:1 66612:3 
3137.858045301578 3626.563034372486 11:1 14:1 41:1 45:1 226:1 473:1 1610:1 3390:1 4709:1 6056:1 8852:1 8856:1 8857:1 8858:1 8859:1 8860:1 8861:1 8862:1 8863:1 8864:1 8865:1 8866:1 8867:1 8868:1 8869:1 8870:1 8871:1 8872:1 8873:1 8874:1 66612:4 
0 441.1922310144936 522:1 918:1 1228:1 2101:1 2102:1 2986:1 8877:1 8878:1 8879:1 8880:1 8881:1 8882:1 8883:1 8884:1 8885:1 8886:1 8887:1 8888:1 8889:1 8890:1 8891:1 66612:1 66618:1 
2841.498338461163 3313.072513700582 749:1 1786:1 7072:1 7350:1 8899:1 8900:1 8901:1 8902:1 8903:1 
675.9549212167864 0 684:1 1857:1 2430:1 2614:1 8968:1 8969:1 8970:1 8971:1 8972:1 8973:1 8974:1 8975:1 8976:1 66620:1 
207.5608258267603 2308.013607069965 14:1 45:1 551:1 552:1 686:1 1985:1 3936:1 4301:1 4771:1 5734:1 6424:1 9005:1 9006:1 9007:1 9008:1 9009:1 9010:1 9011:1 9012:1 9013:1 9014:1 66612:3 
2339.137030039184 1295.64186872697 14:1 45:1 200:1 492:1 993:1 997:1 1015:1 7042:1 9021:1 9022:1 9023:1 9024:1 9025:1 9026:1 9027:1 9028:1 9029:1 9030:1 9031:1 9032:1 9033:1 9034:1 9035:1 9036:1 9037:1 9038:1 66612:2 
417.3714717082224 106.2855851425395 695:1 774:1 1128:1 1860:1 2230:1 2861:1 3166:1 5702:1 5727:1 9039:1 9040:1 9041:1 9042:1 9043:1 9044:1 9045:1 9046:1 9047:1 9048:1 9049:1 
677.4189200984514 952.7259354779698 8:1 14:1 45:1 193:1 203:1 908:1 1509:1 1521:1 3226:1 4521:1 4727:1 7401:1 8182:1 9065:1 9066:1 9067:1 9068:1 9069:1 9070:1 9071:1 9072:1 9073:1 9074:1 9075:1 9076:1 9077:1 9078:1 9079:1 9080:1 9081:1 9082:1 9083:1 9084:1 66612:4 
0 556.1681497409038 951:1 1228:1 4771:1 9197:1 9198:1 9199:1 9200:1 9201:1 9202:1 9203:1 9204:1 9205:1 9206:1 
2371.410437398051 3753.08729889078 14:1 45:1 993:1 6716:1 8641:1 9216:1 9265:1 9266:1 9267:1 9268:1 9269:1 9270:1 9271:1 9272:1 66612:1 
3160.390359358285 671.5345122897569 1814:1 1815:1 1830:1 2198:1 9323:1 9324:1 9325:1 9326:1 9327:1 9328:1 9329:1 9330:1 9331:1 9332:1 9333:1 9334:1 66612:6 
14320.01972736349 3629.869528083982 14:1 638:1 1015:1 6282:1 7158:1 9358:1 9359:1 9360:1 9361:1 66612:2 
3723.045858309447 10642.67063683554 14:1 45:1 613:1 638:1 3350:1 7424:1 9523:1 9524:1 9525:1 9526:1 9527:1 9528:1 9529:1 9530:1 9531:1 66620:1 
2851.022366458479 1473.161905065424 14:1 45:1 725:1 2255:1 2256:1 2286:1 4535:1 9557:1 9558:1 9559:1 9560:1 9561:1 9562:1 9563:1 9564:1 9565:1 9566:1 9567:1 9568:1 9569:1 9570:1 9571:1 9572:1 9573:1 66612:2 
2667.115365768388 3910.943267457494 14:1 198:1 1050:1 2137:1 2152:1 2303:1 8777:1 9646:1 9647:1 9648:1 9649:1 9650:1 9651:1 9652:1 9653:1 66612:1 
4727.185925659243 1652.844618168242 684:1 1685:1 3130:1 3791:1 7458:1 8186:1 9667:1 9668:1 9669:1 9670:1 9671:1 66612:1 
2373.975362047649 485.7263443736582 1251:1 1252:1 1815:1 1971:1 2864:1 7263:1 9672:1 9673:1 9674:1 9675:1 9676:1 9677:1 9678:1 9679:1 9680:1 9681:1 9682:1 9683:1 9684:1 9685:1 9686:1 66612:6 
1837.244523429764 3350.414941723004 14:1 75:1 517:1 1809:1 5589:1 7699:1 8489:1 8490:1 8498:1 9687:1 9688:1 9689:1 9690:1 9691:1 9692:1 9693:1 9694:1 9695:1 9696:1 9697:1 9698:1 9699:1 9700:1 9701:1 
1074.844104001788 1259.192023032183 11:1 4665:1 5210:1 9702:1 9703:1 9704:1 9705:1 9706:1 9707:1 9708:1 9709:1 9710:1 9711:1 9712:1 9713:1 9714:1 9715:1 9716:1 9717:1 9718:1 9719:1 9720:1 9721:1 9722:1 9723:1 9724:1 9725:1 9726:1 66612:4 
3439.873422656247 1161.37953620022 193:1 204:1 4183:1 9524:1 9747:1 9748:1 9749:1 9750:1 9751:1 9752:1 66612:1 
1320.555542079091 8454.105794509132 14:1 45:1 106:1 128:1 129:1 374:1 613:1 2453:1 5164:1 9753:1 9754:1 9755:1 9756:1 9757:1 9758:1 66612:2 66620:1 
1156.615682715978 590.7095708259523 14:1 45:1 148:1 683:1 684:1 741:1 1124:1 1169:1 1251:1 2430:1 2435:1 4119:1 5169:1 9786:1 9787:1 9788:1 9789:1 9790:1 9791:1 9792:1 9793:1 9794:1 9795:1 9796:1 9797:1 9798:1 9799:1 9800:1 9801:1 66612:2 
3078.277698630001 2043.219845046696 14:1 45:1 3976:1 6495:1 7653:1 9886:1 9887:1 9888:1 9889:1 9890:1 9891:1 9892:1 9893:1 9894:1 9895:1 9896:1 9897:1 9898:1 66612:1 
4149.680343707755 1932.680890893065 51:1 193:1 2135:1 2804:1 2805:1 2812:1 2814:1 3957:1 6580:1 8642:1 10064:1 10065:1 10066:1 10067:1 10068:1 10069:1 10070:1 10071:1 10072:1 10073:1 10074:1 10075:1 10076:1 10077:1 10078:1 10079:1 10080:1 66612:1 
3850.208278508973 1545.173621340459 193:1 204:1 994:1 2322:1 2812:1 10096:1 10097:1 10098:1 10099:1 10100:1 10101:1 10102:1 10103:1 10104:1 
2630.889433526699 2209.226583390509 14:1 45:1 1643:1 10123:1 10124:1 10125:1 10126:1 10127:1 10128:1 10129:1 10130:1 10131:1 10132:1 
3195.447900091383 5333.900292967985 200:1 481:1 491:1 10146:1 10147:1 10148:1 10149:1 
5206.507147155617 1630.449798377821 1815:1 3601:1 6485:1 7794:1 9284:1 10587:1 10588:1 10589:1 10590:1 10591:1 10592:1 10593:1 10594:1 66612:4 
7894.553873940891 9903.314733467712 1447:1 10597:1 10598:1 10599:1 10600:1 
3181.64820942819 0 11:1 51:1 1016:1 1228:1 3431:1 10635:1 10636:1 10637:1 10638:1 10639:1 10640:1 10641:1 10642:1 10643:1 10644:1 10645:1 66612:3 
285.5707389882826 372.6180059069801 11:1 14:1 45:1 110:1 112:1 590:1 684:1 689:1 726:1 759:1 993:1 1555:1 1653:1 1858:1 2229:1 3037:1 3177:1 4566:1 4771:1 5088:1 6675:1 6765:1 7776:1 7898:1 8187:1 9014:1 9216:1 10452:1 10562:1 10747:1 10748:1 10749:1 10750:1 10751:1 10752:1 10753:1 10754:1 10755:1 10756:1 10757:1 10758:1 10759:1 10760:1 10761:1 10762:1 10763:1 10764:1 10765:1 10766:1 10767:1 10768:1 10769:1 10770:1 10771:1 10772:1 10773:1 10774:1 10775:1 10776:1 10777:1 10778:1 10779:1 10780:1 10781:1 10782:1 10783:1 10784:1 10785:1 10786:1 10787:1 10788:1 10789:1 10790:1 10791:1 10792:1 10793:1 10794:1 10795:1 10796:1 10797:1 10798:1 10799:1 10800:1 10801:1 10802:1 10803:1 10804:1 10805:1 10806:1 10807:1 10808:1 10809:1 10810:1 10811:1 66612:7 
4130.046990565385 0 14:1 45:1 74:1 330:1 725:1 1751:1 2102:1 10812:1 10813:1 10814:1 10815:1 10816:1 10817:1 10818:1 10819:1 10820:1 10821:1 10822:1 66612:2 66618:1 
2284.611133996836 1197.063445121854 14:1 45:1 71:1 110:1 343:1 351:1 638:1 955:1 993:1 1081:1 1086:1 1327:1 2301:1 2795:1 2798:1 2812:1 4256:1 5185:1 5955:1 6629:1 7072:1 7690:1 7735:1 7843:1 7918:1 10885:1 10886:1 10887:1 10888:1 10889:1 10890:1 10891:1 10892:1 10893:1 10894:1 10895:1 10896:1 10897:1 10898:1 10899:1 10900:1 10901:1 10902:1 10903:1 10904:1 10905:1 10906:1 10907:1 10908:1 66612:5 
2097.174148166551 759.442759428787 11:1 755:1 885:1 1128:1 1164:1 1858:1 9409:1 10909:1 10910:1 10911:1 10912:1 10913:1 10914:1 10915:1 10916:1 10917:1 10918:1 10919:1 10920:1 10921:1 10922:1 10923:1 10924:1 10925:1 10926:1 10927:1 10928:1 10929:1 10930:1 
666.4242713831297 0 11:1 14:1 603:1 617:1 7577:1 8745:1 8747:1 8748:1 8756:1 9471:1 10173:1 10953:1 10954:1 10955:1 10956:1 10957:1 10958:1 10959:1 10960:1 10961:1 10962:1 10963:1 10964:1 10965:1 10966:1 10967:1 10968:1 10969:1 10970:1 10971:1 10972:1 10973:1 10974:1 10975:1 10976:1 10977:1 10978:1 10979:1 66612:2 66620:1 
1197.508484212775 87.50555537913182 586:1 691:1 693:1 755:1 762:1 769:1 773:1 1251:1 2305:1 2861:1 4904:1 8970:1 10191:1 10989:1 10990:1 10991:1 10992:1 10993:1 10994:1 10995:1 10996:1 10997:1 10998:1 10999:1 11000:1 11001:1 11002:1 11003:1 11004:1 11005:1 11006:1 11007:1 11008:1 11009:1 11010:1 11011:1 11012:1 11013:1 11014:1 11015:1 11016:1 66612:1 66620:1 
3838.009937253333 2720.452964177349 14:1 45:1 774:1 3125:1 11068:1 11069:1 11070:1 11071:1 11072:1 11073:1 
2644.0582014953 2962.782985641314 200:1 9525:1 10126:1 11074:1 11075:1 11076:1 11077:1 
412.6610030262011 450.5760125845262 8:1 10:1 11:1 14:1 548:1 1228:1 1535:1 1610:1 3413:1 3564:1 4514:1 5782:1 8125:1 8430:1 11120:1 11121:1 11122:1 11123:1 11124:1 11125:1 11126:1 11127:1 11128:1 11129:1 11130:1 11131:1 66612:3 
1283.585222610612 1076.302562782909 14:1 45:1 474:1 2139:1 6761:1 10707:1 11153:1 11154:1 11155:1 11156:1 11157:1 11158:1 11159:1 11160:1 11161:1 66612:1 
3109.267700684342 1586.764808444903 14:1 586:1 1250:1 1251:1 1254:1 1531:1 7928:1 7929:1 7946:1 11210:1 11211:1 11212:1 11213:1 11214:1 11215:1 11216:1 11217:1 66612:7 
1476.954653345875 2413.379202996452 15:1 217:1 605:1 1356:1 1536:1 4378:1 11225:1 11226:1 11227:1 11228:1 11229:1 11230:1 11231:1 11232:1 11233:1 11234:1 11235:1 11236:1 11237:1 11238:1 11239:1 11240:1 11241:1 11242:1 11243:1 66612:2 
6106.831588154274 6115.370608284687 11339:1 11340:1 11341:1 11342:1 11343:1 11344:1 11345:1 66612:2 66614:0.062518437 66616:0.062518437 
3578.709651999658 3313.917876896196 14:1 45:1 106:1 129:1 351:1 686:1 1610:1 5019:1 6424:1 7802:1 7811:1 8286:1 11393:1 11394:1 11395:1 11396:1 11397:1 11398:1 11399:1 66612:3 
791.0212400909885 924.9917074213855 14:1 45:1 106:1 493:1 2133:1 2281:1 4443:1 4995:1 6656:1 8182:1 8350:1 9072:1 11133:1 11417:1 11418:1 11419:1 11420:1 11421:1 11422:1 11423:1 11424:1 11425:1 11426:1 11427:1 11428:1 11429:1 11430:1 11431:1 11432:1 11433:1 11434:1 11435:1 11436:1 11437:1 11438:1 11439:1 11440:1 11441:1 11442:1 11443:1 11444:1 11445:1 11446:1 11447:1 11448:1 11449:1 11450:1 11451:1 11452:1 11453:1 11454:1 66612:7 
0 863.6292855645532 14:1 45:1 551:1 684:1 689:1 2429:1 2437:1 2987:1 3124:1 3241:1 3243:1 5242:1 5826:1 11482:1 11483:1 11484:1 11485:1 11486:1 11487:1 11488:1 11489:1 11490:1 11491:1 11492:1 11493:1 11494:1 11495:1 11496:1 66612:2 
4367.09669504976 5053.049778472643 14:1 45:1 110:1 435:1 3083:1 3097:1 5277:1 5826:1 6032:1 7690:1 11561:1 11562:1 11563:1 11564:1 11565:1 11566:1 11567:1 11568:1 66612:1 
4491.707670858403 4847.346906882396 14:1 45:1 224:1 226:1 266:1 455:1 473:1 2981:1 2988:1 2989:1 3005:1 3016:1 3029:1 3032:1 7639:1 11615:1 11616:1 11617:1 11618:1 11619:1 11620:1 11621:1 11622:1 11623:1 11624:1 11625:1 11626:1 11627:1 11628:1 11629:1 11630:1 66612:1 
4535.849458493835 1950.257473838593 14:1 45:1 51:1 307:1 474:1 482:1 11631:1 11632:1 11633:1 11634:1 11635:1 11636:1 11637:1 11638:1 66612:1 
5857.397468676588 5128.134340964409 14:1 45:1 409:1 11663:1 11664:1 11665:1 11666:1 
2298.794796400836 3490.174998223565 3152:1 7721:1 11696:1 11697:1 11698:1 11699:1 11700:1 11701:1 11702:1 
7808.151306335433 5662.213607111642 99:1 112:1 4173:1 8778:1 11721:1 11722:1 11723:1 11724:1 11725:1 66612:1 
862.2185565335845 1366.316095433051 14:1 45:1 106:1 128:1 129:1 585:1 1815:1 2012:1 2103:1 3092:1 4962:1 6411:1 9324:1 11726:1 11727:1 11728:1 11729:1 11730:1 11731:1 11732:1 11733:1 11734:1 11735:1 11736:1 11737:1 11738:1 11739:1 11740:1 66612:4 
2014.563215290958 364.6707747928119 14:1 45:1 684:1 939:1 994:1 1124:1 1164:1 2435:1 4805:1 11855:1 11856:1 11857:1 11858:1 11859:1 11860:1 11861:1 11862:1 11863:1 11864:1 11865:1 11866:1 11867:1 11868:1 66612:1 
1179.387806147698 1418.707538014077 14:1 19:1 802:1 1951:1 2248:1 3212:1 3526:1 5020:1 5841:1 5957:1 7624:1 8368:1 9212:1 11958:1 11959:1 11960:1 11961:1 11962:1 11963:1 11964:1 11965:1 11966:1 11967:1 11968:1 11969:1 11970:1 11971:1 11972:1 11973:1 11974:1 11975:1 11976:1 11977:1 11978:1 11979:1 11980:1 11981:1 66612:6 
6704.340156948247 4751.339412267341 14:1 45:1 2439:1 11982:1 11983:1 11984:1 11985:1 11986:1 66612:1 
851.6186491492729 3248.842176239002 106:1 1514:1 2248:1 2841:1 3226:1 4182:1 5021:1 7488:1 12030:1 12031:1 12032:1 66612:2 
0 480.7436911592967 684:1 1858:1 2048:1 3659:1 12061:1 12062:1 12063:1 12064:1 12065:1 12066:1 12067:1 12068:1 12069:1 12070:1 12071:1 12072:1 12073:1 
0 91.83960764830201 14:1 45:1 684:1 1128:1 1164:1 2861:1 5719:1 10272:1 12197:1 12198:1 12199:1 12200:1 12201:1 12202:1 12203:1 12204:1 12205:1 12206:1 12207:1 12208:1 12209:1 12210:1 12211:1 12212:1 12213:1 12214:1 12215:1 12216:1 
2340.401165187223 2595.010892769471 14:1 45:1 196:1 374:1 3109:1 4557:1 12232:1 12233:1 12234:1 12235:1 12236:1 12237:1 12238:1 12239:1 12240:1 12241:1 
3140.289560079227 702.2525469385934 14:1 45:1 341:1 1118:1 2012:1 3280:1 3333:1 4417:1 4904:1 4962:1 6411:1 9637:1 11728:1 11731:1 11737:1 12242:1 12243:1 12244:1 12245:1 12246:1 12247:1 12248:1 12249:1 12250:1 12251:1 12252:1 12253:1 12254:1 12255:1 12256:1 66612:3 
1322.367112581327 2269.084252812933 8:1 14:1 16:1 45:1 70:1 82:1 106:1 110:1 193:1 802:1 1219:1 1374:1 2204:1 2795:1 5956:1 6656:1 12263:1 12264:1 12265:1 12266:1 12267:1 12268:1 12269:1 12270:1 12271:1 12272:1 12273:1 12274:1 12275:1 12276:1 12277:1 12278:1 12279:1 12280:1 12281:1 12282:1 12283:1 66612:3 
1356.956696554392 0 148:1 993:1 2439:1 3432:1 3506:1 5185:1 6918:1 10962:1 12284:1 12285:1 12286:1 12287:1 12288:1 12289:1 12290:1 12291:1 12292:1 12293:1 12294:1 12295:1 12296:1 66612:3 66620:1 
289.8946696525604 264.3059346251059 684:1 689:1 695:1 769:1 1128:1 1694:1 1814:1 1857:1 1869:1 2307:1 2385:1 2429:1 2437:1 3173:1 4995:1 6728:1 6740:1 8187:1 10134:1 10250:1 12338:1 12339:1 12340:1 12341:1 12342:1 12343:1 12344:1 12345:1 12346:1 12347:1 12348:1 12349:1 12350:1 12351:1 12352:1 12353:1 12354:1 12355:1 12356:1 12357:1 12358:1 12359:1 12360:1 12361:1 66612:1 
1186.41943817023 1083.132127142469 677:1 684:1 689:1 769:1 1554:1 6536:1 9971:1 10993:1 12366:1 12367:1 12368:1 12369:1 12370:1 12371:1 12372:1 12373:1 12374:1 12375:1 12376:1 12377:1 12378:1 12379:1 12380:1 
1055.752243166153 1080.174741404563 8:1 11:1 14:1 45:1 493:1 606:1 950:1 1832:1 1939:1 2206:1 2207:1 4450:1 11575:1 12407:1 12408:1 12409:1 12410:1 12411:1 12412:1 12413:1 12414:1 12415:1 12416:1 12417:1 12418:1 12419:1 12420:1 12421:1 12422:1 12423:1 12424:1 12425:1 12426:1 12427:1 66612:5 
1086.44267417919 0 684:1 777:1 1164:1 1169:1 1858:1 4805:1 4868:1 8413:1 8970:1 9786:1 9796:1 10582:1 12428:1 12429:1 12430:1 12431:1 12432:1 12433:1 12434:1 12435:1 12436:1 12437:1 12438:1 12439:1 12440:1 12441:1 12442:1 66612:1 66620:1 
530.540862361085 253.9777428973864 14:1 137:1 139:1 1291:1 1610:1 1845:1 3660:1 4899:1 6407:1 8666:1 11135:1 11728:1 12443:1 12444:1 12445:1 12446:1 12447:1 12448:1 12449:1 12450:1 12451:1 12452:1 12453:1 12454:1 12455:1 12456:1 12457:1 12458:1 12459:1 12460:1 12461:1 12462:1 12463:1 66612:6 
1932.015284259556 2015.843734511659 14:1 45:1 2260:1 12477:1 12478:1 12479:1 12480:1 12481:1 12482:1 12483:1 12484:1 12485:1 12486:1 12487:1 12488:1 12489:1 12490:1 12491:1 12492:1 12493:1 12494:1 12495:1 12496:1 12497:1 
803.1943496888066 0 1031:1 1441:1 2853:1 5932:1 6168:1 7558:1 7578:1 10126:1 12536:1 12537:1 12538:1 12539:1 12540:1 12541:1 12542:1 66612:3 
2709.147372611008 1453.168892938339 14:1 45:1 1857:1 2229:1 2307:1 2385:1 2386:1 3243:1 7745:1 7768:1 12652:1 12653:1 12654:1 12655:1 12656:1 12657:1 12658:1 12659:1 12660:1 12661:1 12662:1 12663:1 12664:1 12665:1 
39356.88602130517 36151.54817417389 12684:1 66612:2 
5141.953866301395 7091.667078367946 145:1 2159:1 3650:1 12748:1 12749:1 12750:1 12751:1 
16441.99710173202 14708.70759604097 2923:1 3936:1 12761:1 66612:1 
1951.416104655549 2462.463610453301 14:1 45:1 82:1 725:1 1791:1 5526:1 12792:1 12793:1 12794:1 12795:1 12796:1 12797:1 12798:1 12799:1 12800:1 12801:1 
750.3019970849514 452.8529550379363 14:1 45:1 408:1 613:1 728:1 1051:1 2166:1 11631:1 12819:1 12820:1 12821:1 12822:1 12823:1 12824:1 12825:1 12826:1 12827:1 12828:1 12829:1 12830:1 66612:1 66620:1 
1292.019363550113 84.96613031394365 585:1 691:1 696:1 939:1 1128:1 1251:1 1266:1 1845:1 1973:1 2227:1 2970:1 3659:1 5921:1 7121:1 8009:1 8014:1 12831:1 12832:1 12833:1 12834:1 12835:1 12836:1 12837:1 12838:1 12839:1 12840:1 12841:1 12842:1 12843:1 12844:1 12845:1 12846:1 12847:1 12848:1 12849:1 12850:1 66612:4 66618:1 
0 158.2536502150405 172:1 551:1 1228:1 1318:1 2738:1 3531:1 5323:1 5677:1 7958:1 13017:1 13018:1 13019:1 13020:1 13021:1 13022:1 13023:1 13024:1 13025:1 13026:1 13027:1 13028:1 13029:1 13030:1 13031:1 66612:4 66614:0.022727273 66616:0.022727273 
1467.106667270214 1887.768169493658 103:1 307:1 2280:1 11744:1 13032:1 13033:1 13034:1 13035:1 13036:1 13037:1 13038:1 66612:2 
893.4000473318209 752.1889485667953 14:1 45:1 586:1 1441:1 1870:1 2930:1 2939:1 4061:1 4806:1 8081:1 11498:1 11507:1 13091:1 13092:1 13093:1 13094:1 13095:1 13096:1 13097:1 13098:1 13099:1 13100:1 13101:1 13102:1 13103:1 13104:1 13105:1 13106:1 13107:1 13108:1 13109:1 13110:1 13111:1 13112:1 13113:1 13114:1 13115:1 13116:1 13117:1 13118:1 13119:1 13120:1 66612:3 
5436.244918140642 5708.744278187381 14:1 45:1 60:1 1035:1 1045:1 1740:1 3981:1 13134:1 13135:1 13136:1 13137:1 13138:1 13139:1 13140:1 66612:2 66620:2 
0 1062.387723607757 14:1 1509:1 1572:1 1610:1 1781:1 1788:1 2015:1 3431:1 4183:1 7565:1 8506:1 13303:1 13304:1 13305:1 13306:1 13307:1 13308:1 13309:1 13310:1 13311:1 13312:1 13313:1 13314:1 13315:1 13316:1 13317:1 13318:1 66612:4 
3279.231328558397 1964.471970093715 14:1 45:1 2707:1 2788:1 2790:1 2794:1 13369:1 13370:1 13371:1 13372:1 13373:1 13374:1 13375:1 66612:1 
1827.342729118502 1284.749425693511 11:1 22:1 104:1 951:1 1489:1 3333:1 5932:1 7790:1 13500:1 13501:1 13502:1 13503:1 13504:1 13505:1 13506:1 13507:1 13508:1 13509:1 13510:1 13511:1 13512:1 13513:1 13514:1 13515:1 13516:1 13517:1 13518:1 13519:1 13520:1 13521:1 13522:1 13523:1 13524:1 13525:1 13526:1 13527:1 13528:1 13529:1 13530:1 13531:1 13532:1 13533:1 13534:1 13535:1 13536:1 13537:1 13538:1 66612:5 66618:1 
3877.653755324498 5304.85349352438 14:1 45:1 382:1 725:1 1475:1 1749:1 1786:1 3430:1 4537:1 7584:1 13032:1 13682:1 13683:1 13684:1 13685:1 13686:1 13687:1 13688:1 66612:2 
2373.927383444926 4823.661079667252 11:1 14:1 60:1 330:1 997:1 3957:1 5170:1 5421:1 13700:1 13701:1 13702:1 13703:1 13704:1 13705:1 13706:1 13707:1 13708:1 
994.4379943103889 823.571448573796 684:1 1128:1 1251:1 1554:1 2088:1 4355:1 13729:1 13730:1 13731:1 13732:1 13733:1 13734:1 13735:1 13736:1 13737:1 13738:1 13739:1 13740:1 13741:1 13742:1 13743:1 66612:2 
3066.699967637822 2416.363623598242 14:1 45:1 145:1 523:1 13748:1 13749:1 13750:1 13751:1 13752:1 13753:1 13754:1 13755:1 13756:1 13757:1 13758:1 13759:1 66612:3 
7658.651656233605 4941.028352626703 140:1 193:1 802:1 3226:1 9765:1 13825:1 13826:1 13827:1 13828:1 13829:1 66612:2 66618:1 
2201.633781464353 3408.212698256366 82:1 193:1 951:1 3280:1 4748:1 11892:1 11893:1 11901:1 13830:1 13831:1 13832:1 13833:1 13834:1 13835:1 13836:1 13837:1 13838:1 
489.3986441291692 100.4717697730327 586:1 1260:1 1267:1 1287:1 1531:1 1845:1 2198:1 2861:1 4902:1 7794:1 10750:1 11019:1 13839:1 13840:1 13841:1 13842:1 13843:1 13844:1 13845:1 13846:1 13847:1 13848:1 13849:1 13850:1 13851:1 13852:1 13853:1 13854:1 13855:1 13856:1 13857:1 13858:1 13859:1 13860:1 13861:1 13862:1 13863:1 66612:4 
4725.604183002215 1176.378467072029 14:1 982:1 3729:1 10737:1 13999:1 14000:1 14001:1 14002:1 14003:1 14004:1 14005:1 66612:2 
0 196.0884500380294 4:1 14:1 45:1 981:1 2744:1 5675:1 14012:1 14013:1 14014:1 14015:1 14016:1 14017:1 14018:1 14019:1 14020:1 14021:1 66612:1 66619:1 
2843.009218077548 922.5521393605471 14:1 45:1 103:1 145:1 438:1 2659:1 4578:1 14060:1 14061:1 14062:1 66612:2 
2397.48462442828 2960.463333991513 11:1 70:1 2201:1 9279:1 14084:1 14085:1 14086:1 14087:1 14088:1 14089:1 14090:1 14091:1 14092:1 14093:1 14094:1 14095:1 14096:1 14097:1 14098:1 14099:1 14100:1 66612:6 
615.2346310999849 1144.769460589235 14:1 45:1 1149:1 14116:1 14117:1 14118:1 14119:1 14120:1 14121:1 14122:1 
2733.72741597983 3921.492554500476 71:1 993:1 14175:1 14176:1 14177:1 14178:1 14179:1 14180:1 14181:1 14182:1 14183:1 14184:1 14185:1 
3468.822868989028 4188.012875679456 14:1 77:1 266:1 2248:1 14199:1 14200:1 14201:1 14202:1 14203:1 14204:1 14205:1 14206:1 14207:1 14208:1 14209:1 14210:1 14211:1 66612:6 
3819.186184859047 5337.088057773431 11:1 388:1 877:1 2111:1 3280:1 5274:1 7982:1 12381:1 12389:1 12390:1 14358:1 14359:1 14360:1 14361:1 14362:1 66612:2 
3591.973501158896 7041.874864427593 1568:1 2260:1 7391:1 8220:1 9242:1 9860:1 9866:1 14374:1 14375:1 66612:1 66619:1 
1181.787505567107 302.4521190678313 14:1 45:1 550:1 551:1 561:1 588:1 1251:1 1262:1 2198:1 14388:1 14389:1 14390:1 14391:1 14392:1 14393:1 14394:1 14395:1 14396:1 14397:1 14398:1 14399:1 14400:1 14401:1 14402:1 14403:1 14404:1 14405:1 14406:1 14407:1 14408:1 14409:1 14410:1 14411:1 14412:1 14413:1 14414:1 14415:1 66612:7 
36840.7146717483 37282.8187013343 3978:1 
1764.011886908719 4902.981831876727 14:1 45:1 517:1 613:1 2043:1 2159:1 12332:1 14437:1 14438:1 14439:1 66620:1 
4370.246151882471 3925.070665340657 8:1 19:1 457:1 493:1 916:1 2207:1 2259:1 3912:1 14440:1 14441:1 14442:1 14443:1 14444:1 14445:1 14446:1 14447:1 14448:1 14449:1 66612:5 
1786.495614059207 826.8460284728194 2316:1 5505:1 8228:1 9180:1 14488:1 14489:1 14490:1 14491:1 14492:1 66612:1 
1047.104621549471 2577.556506270016 106:1 449:1 493:1 840:1 1942:1 4208:1 7022:1 14493:1 14494:1 14495:1 14496:1 14497:1 14498:1 14499:1 14500:1 14501:1 14502:1 14503:1 14504:1 14505:1 14506:1 14507:1 14508:1 14509:1 14510:1 14511:1 14512:1 14513:1 14514:1 66612:2 
624.0630432683628 483.0019004942556 14:1 45:1 1474:1 3957:1 9754:1 9758:1 12005:1 14515:1 14516:1 14517:1 14518:1 14519:1 14520:1 14521:1 14522:1 66612:1 
3614.081549231252 1834.443964776736 1:1 14:1 45:1 51:1 330:1 1048:1 2662:1 2875:1 2915:1 6988:1 10635:1 14547:1 14548:1 14549:1 14550:1 14551:1 14552:1 14553:1 14554:1 14555:1 14556:1 14557:1 14558:1 14559:1 14560:1 14561:1 14562:1 14563:1 14564:1 66612:2 
0 3515.248211599963 4:1 103:1 193:1 10067:1 14609:1 14610:1 14611:1 14612:1 14613:1 14614:1 14615:1 66619:1 
2179.620651786318 2470.945821632267 14:1 45:1 388:1 1531:1 1845:1 3344:1 6122:1 6132:1 7471:1 9992:1 14657:1 14658:1 14659:1 14660:1 14661:1 14662:1 14663:1 14664:1 14665:1 14666:1 14667:1 14668:1 14669:1 14670:1 14671:1 14672:1 14673:1 14674:1 14675:1 14676:1 66612:6 
2913.513598846691 2311.260116894378 74:1 802:1 843:1 1383:1 1938:1 2248:1 4105:1 14816:1 14817:1 14818:1 14819:1 14820:1 14821:1 14822:1 14823:1 66612:1 
1640.042165372559 2005.051607522019 14:1 193:1 226:1 493:1 880:1 951:1 973:1 2134:1 3276:1 3525:1 3533:1 7537:1 11022:1 14833:1 14834:1 14835:1 14836:1 14837:1 14838:1 14839:1 14840:1 14841:1 14842:1 14843:1 14844:1 14845:1 14846:1 14847:1 14848:1 14849:1 14850:1 66612:1 
0 1202.437030949241 11:1 1407:1 1786:1 2300:1 2427:1 3069:1 12784:1 13033:1 14705:1 14928:1 14929:1 14930:1 14931:1 14932:1 14933:1 14934:1 14935:1 14936:1 
1142.493229361483 711.2425570897582 777:1 1128:1 1130:1 1251:1 1555:1 2429:1 2521:1 3243:1 4904:1 8394:1 9409:1 14967:1 14968:1 14969:1 14970:1 14971:1 14972:1 14973:1 14974:1 14975:1 14976:1 14977:1 14978:1 14979:1 14980:1 14981:1 14982:1 14983:1 
821.3799730154349 0 14:1 45:1 193:1 644:1 1052:1 2465:1 8228:1 9471:1 9958:1 14993:1 14994:1 14995:1 14996:1 14997:1 14998:1 14999:1 15000:1 15001:1 15002:1 15003:1 15004:1 15005:1 
8239.646472389702 8233.133676915841 1441:1 2427:1 4397:1 7979:1 15039:1 15040:1 15041:1 
985.0337911800229 1845.210458873307 14:1 684:1 694:1 939:1 3338:1 12880:1 15100:1 15101:1 15102:1 15103:1 15104:1 15105:1 15106:1 15107:1 15108:1 15109:1 15110:1 66612:2 
2732.526048500151 5492.94985913535 8:1 11:1 15:1 70:1 109:1 193:1 351:1 1825:1 1939:1 2691:1 6059:1 9516:1 9517:1 9522:1 15134:1 15135:1 15136:1 15137:1 15138:1 15139:1 15140:1 15141:1 15142:1 66612:3 
914.9114077647988 1429.57919773691 590:1 1531:1 1845:1 3621:1 4755:1 6485:1 8080:1 9284:1 9303:1 12038:1 14394:1 15172:1 15173:1 15174:1 15175:1 15176:1 15177:1 15178:1 15179:1 15180:1 15181:1 15182:1 15183:1 15184:1 15185:1 15186:1 66612:2 
13241.26310254558 8478.729565752548 98:1 12752:1 15234:1 15235:1 15236:1 
425.322194532767 159.3354913502193 684:1 759:1 770:1 939:1 1128:1 1164:1 1251:1 1554:1 1689:1 1857:1 2037:1 2304:1 2305:1 2308:1 2521:1 3037:1 4829:1 4971:1 8187:1 13608:1 15270:1 15271:1 15272:1 15273:1 15274:1 15275:1 15276:1 15277:1 15278:1 15279:1 15280:1 15281:1 15282:1 15283:1 15284:1 15285:1 15286:1 15287:1 15288:1 15289:1 15290:1 15291:1 15292:1 15293:1 15294:1 15295:1 15296:1 15297:1 15298:1 15299:1 15300:1 15301:1 15302:1 15303:1 15304:1 15305:1 15306:1 15307:1 15308:1 15309:1 66612:3 
16.74696063869358 750.554533833729 11:1 14:1 15:1 351:1 552:1 1228:1 1461:1 4184:1 6101:1 6802:1 10112:1 14856:1 15424:1 15425:1 15426:1 15427:1 15428:1 15429:1 15430:1 15431:1 15432:1 15433:1 15434:1 15435:1 15436:1 15437:1 15438:1 15439:1 15440:1 15441:1 15442:1 15443:1 15444:1 66612:6 
88.54598710865636 133.9566494223186 11:1 648:1 684:1 689:1 1128:1 1164:1 1531:1 1688:1 1691:1 2289:1 2429:1 2437:1 2459:1 3492:1 3861:1 4081:1 4325:1 4997:1 6154:1 10173:1 11340:1 14968:1 15490:1 15491:1 15492:1 15493:1 15494:1 15495:1 15496:1 15497:1 15498:1 15499:1 15500:1 15501:1 15502:1 15503:1 15504:1 15505:1 15506:1 15507:1 15508:1 15509:1 15510:1 15511:1 15512:1 15513:1 15514:1 66612:1 
2121.763302196515 2475.634014372357 145:1 997:1 2763:1 5249:1 8324:1 11303:1 14341:1 15517:1 15518:1 15519:1 15520:1 15521:1 15522:1 
2840.872763574542 2992.284765017881 1356:1 1845:1 4755:1 4899:1 11135:1 12443:1 12450:1 12451:1 12452:1 15547:1 15548:1 15549:1 15550:1 66612:2 
945.9650465947182 178.2796945811998 684:1 691:1 2604:1 10134:1 10170:1 10499:1 11483:1 14661:1 15354:1 15551:1 15552:1 15553:1 15554:1 15555:1 15556:1 15557:1 15558:1 
0 484.5595017897118 11:1 14:1 45:1 695:1 755:1 1128:1 1164:1 2073:1 2430:1 9128:1 13033:1 13778:1 15243:1 15585:1 15586:1 15587:1 15588:1 15589:1 15590:1 15591:1 15592:1 15593:1 15594:1 15595:1 15596:1 15597:1 15598:1 15599:1 15600:1 15601:1 15602:1 15603:1 15604:1 15605:1 15606:1 15607:1 15608:1 15609:1 15610:1 15611:1 15612:1 66612:1 
1053.765333082374 1617.504409004194 11:1 14:1 15:1 104:1 109:1 493:1 950:1 1536:1 2173:1 2691:1 4603:1 8438:1 15627:1 15628:1 15629:1 15630:1 15631:1 15632:1 15633:1 15634:1 15635:1 15636:1 15637:1 15638:1 15639:1 15640:1 15641:1 15642:1 15643:1 15644:1 15645:1 15646:1 15647:1 15648:1 66612:2 
1514.060054412446 5965.584468208036 14:1 45:1 613:1 2275:1 2766:1 3441:1 7001:1 7424:1 7898:1 10173:1 15487:1 15656:1 15657:1 15658:1 15659:1 15660:1 15661:1 15662:1 15663:1 15664:1 15665:1 15666:1 15667:1 15668:1 66620:1 
4759.653605839833 4012.770548278907 11:1 15:1 1291:1 1610:1 3823:1 5062:1 7802:1 7811:1 15226:1 15705:1 15706:1 15707:1 15708:1 15709:1 15710:1 15711:1 15712:1 66612:5 66614:0.017064165 66616:0.017064165 
2896.689660120825 1381.676042051239 14:1 45:1 145:1 198:1 1907:1 3838:1 4535:1 4664:1 9886:1 11781:1 15729:1 15730:1 15731:1 15732:1 15733:1 15734:1 15735:1 15736:1 15737:1 15738:1 15739:1 15740:1 15741:1 15742:1 66612:3 
884.2371165296141 1243.556043312981 14:1 198:1 586:1 1814:1 3381:1 4326:1 4870:1 4948:1 6056:1 7729:1 7794:1 10862:1 13437:1 15772:1 15773:1 15774:1 15775:1 15776:1 15777:1 15778:1 15779:1 15780:1 15781:1 15782:1 15783:1 15784:1 15785:1 15786:1 15787:1 15788:1 15789:1 15790:1 66612:5 
9260.435772646897 3120.557583214783 1015:1 15830:1 15831:1 15832:1 15833:1 15834:1 15835:1 15836:1 15837:1 
2338.823350849711 3334.088800107679 8:1 14:1 266:1 347:1 1251:1 1509:1 2248:1 3526:1 8009:1 8014:1 8050:1 9803:1 9808:1 14204:1 15904:1 15905:1 15906:1 15907:1 15908:1 15909:1 15910:1 15911:1 15912:1 66612:4 
7217.366952240964 16725.9114262456 14:1 45:1 5819:1 15924:1 15925:1 15926:1 15927:1 15928:1 66612:1 
0 603.1858597785055 14:1 15:1 45:1 268:1 455:1 801:1 994:1 2427:1 2428:1 3402:1 14515:1 14520:1 15938:1 15939:1 15940:1 15941:1 15942:1 15943:1 15944:1 15945:1 15946:1 15947:1 15948:1 15949:1 15950:1 15951:1 15952:1 15953:1 15954:1 15955:1 15956:1 66612:2 
11481.42946079342 10917.87206244812 193:1 204:1 334:1 388:1 1781:1 1837:1 16104:1 16105:1 
846.9982006190191 3813.085903683992 82:1 684:1 689:1 1782:1 1849:1 1858:1 3202:1 6582:1 8859:1 9971:1 16121:1 16122:1 16123:1 16124:1 16125:1 16126:1 16127:1 16128:1 16129:1 16130:1 16131:1 66612:1 
2397.286670903966 5035.248965768914 993:1 3546:1 3838:1 6627:1 7074:1 16155:1 16156:1 16157:1 16158:1 16159:1 16160:1 16161:1 16162:1 66612:1 
3757.615339403326 5386.769248499656 193:1 374:1 4478:1 5756:1 5757:1 6042:1 16163:1 16164:1 16165:1 16166:1 16167:1 16168:1 16169:1 16170:1 66612:2 
2668.875484911066 1789.760059184252 14:1 16188:1 16189:1 16190:1 16191:1 16192:1 16193:1 16194:1 16195:1 16196:1 16197:1 16198:1 16199:1 16200:1 16201:1 66612:5 
5511.145728389733 1345.371320106248 774:1 1124:1 16226:1 16227:1 16228:1 16229:1 16230:1 66612:2 66620:1 
2241.594488536781 2848.307071154077 1551:1 1687:1 2048:1 10996:1 12065:1 13487:1 16357:1 16358:1 16359:1 16360:1 16361:1 16362:1 16363:1 16364:1 16365:1 16366:1 16367:1 
617.2207636328684 480.8754181796615 11:1 14:1 45:1 106:1 148:1 167:1 193:1 198:1 204:1 377:1 435:1 479:1 1015:1 1016:1 1408:1 3865:1 4537:1 4931:1 7589:1 9109:1 12516:1 13063:1 14006:1 14425:1 15942:1 16433:1 16434:1 16435:1 16436:1 16437:1 16438:1 16439:1 16440:1 16441:1 16442:1 16443:1 16444:1 16445:1 16446:1 16447:1 16448:1 16449:1 16450:1 16451:1 16452:1 16453:1 16454:1 16455:1 16456:1 16457:1 16458:1 16459:1 16460:1 16461:1 16462:1 16463:1 16464:1 16465:1 16466:1 16467:1 16468:1 16469:1 16470:1 16471:1 16472:1 16473:1 16474:1 16475:1 16476:1 16477:1 16478:1 16479:1 16480:1 16481:1 16482:1 16483:1 16484:1 16485:1 16486:1 16487:1 66612:8 
3243.406496603738 2001.035178324825 176:1 950:1 981:1 1739:1 1749:1 2280:1 2313:1 2851:1 3381:1 3729:1 4948:1 15517:1 16495:1 16496:1 16497:1 16498:1 16499:1 16500:1 16501:1 16502:1 16503:1 16504:1 16505:1 16506:1 16507:1 16508:1 16509:1 16510:1 16511:1 16512:1 66612:2 
1813.951167230994 0 14:1 45:1 580:1 613:1 3492:1 3952:1 4771:1 5000:1 9128:1 16522:1 16523:1 16524:1 16525:1 16526:1 16527:1 16528:1 16529:1 16530:1 66612:1 66619:1 66620:1 
3890.244725630892 4423.196026119911 11:1 493:1 697:1 5670:1 16546:1 16547:1 16548:1 16549:1 16550:1 16551:1 16552:1 66612:1 
1598.406984885321 1415.810060365824 14:1 45:1 684:1 939:1 3338:1 4077:1 5422:1 8462:1 9956:1 11164:1 11639:1 16624:1 16625:1 16626:1 16627:1 16628:1 16629:1 16630:1 16631:1 16632:1 16633:1 16634:1 16635:1 16636:1 16637:1 16638:1 66612:4 
684.6412170118973 8641.161854760585 14:1 45:1 613:1 684:1 1251:1 1860:1 4864:1 7209:1 7424:1 16728:1 16729:1 16730:1 16731:1 16732:1 16733:1 16734:1 66620:1 
1540.370329609195 1430.806159894323 14:1 45:1 224:1 1252:1 1291:1 3601:1 4948:1 5606:1 10588:1 10592:1 16833:1 16834:1 16835:1 16836:1 16837:1 16838:1 16839:1 16840:1 16841:1 16842:1 16843:1 16844:1 16845:1 16846:1 16847:1 16848:1 16849:1 66612:2 
1516.397347056898 853.6065952646529 14:1 45:1 1251:1 2857:1 2888:1 4870:1 7925:1 13691:1 16910:1 16911:1 16912:1 16913:1 16914:1 16915:1 16916:1 16917:1 16918:1 16919:1 16920:1 16921:1 16922:1 66612:3 
0 23.19234283660546 14:1 684:1 1857:1 2137:1 2152:1 3898:1 8968:1 8969:1 8975:1 16947:1 16948:1 16949:1 16950:1 16951:1 16952:1 16953:1 16954:1 16955:1 16956:1 16957:1 
2092.446523160049 759.4070446122213 684:1 689:1 695:1 718:1 756:1 776:1 1128:1 1170:1 3243:1 8970:1 13584:1 17011:1 17012:1 17013:1 17014:1 17015:1 17016:1 17017:1 17018:1 66620:1 
1868.85339966404 9067.637322158016 3333:1 16242:1 17101:1 66612:1 
1924.301992956234 6111.674032196285 145:1 411:1 4418:1 4557:1 7014:1 9595:1 17119:1 17120:1 17121:1 17122:1 17123:1 17124:1 17125:1 66612:1 
899.1478415846271 1769.551171547922 14:1 45:1 684:1 1688:1 16728:1 17126:1 17127:1 17128:1 
6641.394573351928 3296.259059087472 14:1 1981:1 2105:1 7690:1 17178:1 17179:1 17180:1 17181:1 17182:1 17183:1 17184:1 17185:1 17186:1 17187:1 17188:1 66612:1 
0 1011.384346670069 14:1 106:1 129:1 198:1 684:1 770:1 777:1 939:1 981:1 1124:1 1656:1 1672:1 1688:1 2037:1 2305:1 2435:1 2864:1 3586:1 3729:1 10737:1 13994:1 17278:1 17279:1 17280:1 17281:1 17282:1 17283:1 17284:1 17285:1 17286:1 17287:1 17288:1 17289:1 17290:1 17291:1 17292:1 17293:1 17294:1 17295:1 17296:1 17297:1 17298:1 17299:1 66612:2 
256.0804347860031 45.37625990530831 14:1 45:1 585:1 693:1 695:1 774:1 776:1 777:1 939:1 1845:1 1973:1 2304:1 2861:1 2863:1 3129:1 3130:1 3144:1 4868:1 4985:1 11482:1 14759:1 15310:1 17300:1 17301:1 17302:1 17303:1 17304:1 17305:1 17306:1 17307:1 17308:1 17309:1 17310:1 17311:1 17312:1 17313:1 17314:1 17315:1 17316:1 17317:1 17318:1 17319:1 17320:1 17321:1 17322:1 17323:1 17324:1 17325:1 17326:1 17327:1 17328:1 17329:1 17330:1 66612:1 
0 1601.276130544412 4:1 11:1 1048:1 2443:1 2693:1 9748:1 17383:1 17384:1 17385:1 17386:1 17387:1 17388:1 17389:1 17390:1 17391:1 17392:1 17393:1 17394:1 17395:1 66619:1 
470.582431454304 406.8984166176417 328:1 435:1 823:1 981:1 1792:1 3257:1 4271:1 4557:1 5819:1 13033:1 17414:1 17415:1 17416:1 17417:1 17418:1 17419:1 17420:1 17421:1 17422:1 17423:1 17424:1 17425:1 17426:1 17427:1 17428:1 
782.4677572280007 429.9662468889013 684:1 771:1 939:1 1128:1 1171:1 1860:1 2198:1 2229:1 3141:1 4082:1 10154:1 10452:1 17489:1 17490:1 17491:1 17492:1 17493:1 17494:1 17495:1 17496:1 17497:1 17498:1 17499:1 17500:1 17501:1 17502:1 17503:1 17504:1 17505:1 17506:1 17507:1 66612:3 
2643.180857482987 0 684:1 1128:1 1698:1 3173:1 8970:1 12341:1 14227:1 17538:1 17539:1 17540:1 17541:1 17542:1 17543:1 66612:1 66620:1 
2825.310501477195 351.6541356529449 585:1 586:1 755:1 769:1 4852:1 5704:1 8970:1 9444:1 9536:1 9537:1 9551:1 9552:1 10134:1 17604:1 17605:1 17606:1 17607:1 17608:1 17609:1 17610:1 17611:1 66620:1 
2719.898494922048 1685.442926396541 14:1 590:1 2327:1 16925:1 17627:1 17628:1 17629:1 17630:1 17631:1 17632:1 17633:1 
477.3347192179346 822.2005007413158 677:1 684:1 777:1 1164:1 2429:1 2861:1 4355:1 4360:1 5082:1 17639:1 17640:1 17641:1 17642:1 17643:1 17644:1 17645:1 17646:1 17647:1 17648:1 17649:1 17650:1 66612:1 
335.4239161019395 1038.455468036263 4:1 14:1 45:1 193:1 203:1 204:1 604:1 755:1 771:1 2326:1 2427:1 3165:1 3774:1 5043:1 5508:1 5829:1 5999:1 7222:1 12366:1 16532:1 17699:1 17700:1 17701:1 17702:1 17703:1 17704:1 17705:1 17706:1 17707:1 17708:1 17709:1 17710:1 17711:1 17712:1 17713:1 17714:1 66612:1 66619:1 
801.5083866048683 120.1036224016185 14:1 1251:1 1260:1 1535:1 1973:1 2011:1 2560:1 3659:1 4870:1 5376:1 8417:1 11132:1 17758:1 17759:1 17760:1 17761:1 17762:1 17763:1 17764:1 17765:1 17766:1 17767:1 17768:1 17769:1 17770:1 17771:1 17772:1 17773:1 17774:1 17775:1 17776:1 17777:1 17778:1 17779:1 17780:1 17781:1 17782:1 17783:1 17784:1 17785:1 17786:1 17787:1 17788:1 17789:1 17790:1 17791:1 17792:1 17793:1 17794:1 17795:1 17796:1 17797:1 17798:1 17799:1 17800:1 17801:1 17802:1 17803:1 17804:1 17805:1 17806:1 17807:1 17808:1 17809:1 17810:1 17811:1 17812:1 66612:9 
3328.695847436707 5878.264950328292 14:1 45:1 195:1 341:1 523:1 613:1 638:1 647:1 1748:1 2133:1 3863:1 7424:1 8793:1 17813:1 17814:1 17815:1 17816:1 17817:1 17818:1 17819:1 17820:1 17821:1 17822:1 17823:1 17824:1 17825:1 17826:1 17827:1 66612:3 66620:1 
4998.874008626207 4383.105106286707 11:1 14:1 45:1 82:1 4664:1 8679:1 13194:1 13792:1 14013:1 17862:1 17863:1 17864:1 17865:1 17866:1 
5431.797803406541 3944.014854777 14:1 45:1 145:1 728:1 1035:1 1045:1 17867:1 17868:1 17869:1 17870:1 66620:1 
19645.5027603518 12405.42493960218 728:1 1749:1 9215:1 17871:1 17872:1 
2718.815886062415 70.63820372907571 1251:1 1260:1 8970:1 17771:1 17967:1 17968:1 17969:1 17970:1 17971:1 17972:1 17973:1 17974:1 17975:1 17976:1 17977:1 66612:2 66620:1 
5289.608715160035 5350.492656972841 14:1 310:1 2321:1 2708:1 8918:1 18042:1 18043:1 18044:1 18045:1 18046:1 18047:1 
4157.792255736486 3549.385550933719 1857:1 2048:1 6595:1 6603:1 18048:1 18049:1 18050:1 18051:1 18052:1 
105.4872444208304 0 14:1 45:1 474:1 939:1 1124:1 1146:1 1554:1 1555:1 1693:1 1981:1 2322:1 2435:1 3037:1 3952:1 4524:1 5084:1 12339:1 14341:1 15731:1 17280:1 18066:1 18067:1 18068:1 18069:1 18070:1 18071:1 18072:1 18073:1 18074:1 18075:1 18076:1 18077:1 18078:1 18079:1 18080:1 18081:1 18082:1 18083:1 18084:1 18085:1 18086:1 18087:1 18088:1 18089:1 18090:1 18091:1 18092:1 18093:1 18094:1 18095:1 18096:1 18097:1 18098:1 18099:1 18100:1 18101:1 18102:1 18103:1 18104:1 18105:1 18106:1 18107:1 18108:1 18109:1 18110:1 18111:1 18112:1 66612:3 
3227.418019997053 1619.048348746577 8:1 14:1 45:1 388:1 585:1 1815:1 2948:1 3092:1 3655:1 3944:1 4060:1 4962:1 11728:1 11737:1 11738:1 14201:1 16581:1 18132:1 18133:1 18134:1 18135:1 18136:1 18137:1 18138:1 18139:1 18140:1 18141:1 66612:6 
3539.62559908061 1924.560236597589 684:1 1174:1 3037:1 4805:1 4868:1 6684:1 8187:1 18216:1 18217:1 18218:1 18219:1 18220:1 18221:1 18222:1 18223:1 18224:1 18225:1 18226:1 18227:1 18228:1 18229:1 18230:1 66618:3 
0 846.5752416499912 574:1 3936:1 4239:1 14550:1 18380:1 18381:1 18382:1 
10107.16515621473 5858.208273891934 334:1 2010:1 2256:1 18415:1 18416:1 18417:1 18418:1 18419:1 
4392.650548784749 5399.245434927997 774:1 6340:1 10212:1 18476:1 18477:1 18478:1 18479:1 
8368.916105898179 7756.809302524755 145:1 728:1 17868:1 18519:1 18520:1 
5845.641738267203 441.6027109312728 193:1 204:1 341:1 642:1 3568:1 4325:1 8793:1 16645:1 17822:1 18575:1 18576:1 18577:1 18578:1 18579:1 18580:1 18581:1 18582:1 18583:1 18584:1 18585:1 18586:1 18587:1 66612:3 
2188.806320935943 2031.701018297777 14:1 1610:1 2320:1 3413:1 3628:1 5352:1 5366:1 5536:1 16057:1 18612:1 18613:1 18614:1 18615:1 18616:1 18617:1 18618:1 18619:1 18620:1 18621:1 18622:1 18623:1 18624:1 18625:1 18626:1 18627:1 18628:1 66612:6 
12406.92757327578 4443.159969067342 145:1 2659:1 13168:1 18640:1 18641:1 66612:2 
1080.701649136563 1122.378072780805 11:1 14:1 109:1 351:1 802:1 1018:1 1324:1 1339:1 4147:1 4607:1 7982:1 7983:1 7998:1 8108:1 18522:1 18722:1 18723:1 18724:1 18725:1 18726:1 18727:1 18728:1 18729:1 18730:1 18731:1 18732:1 18733:1 18734:1 18735:1 18736:1 18737:1 18738:1 66612:3 
22219.98628457258 10741.61092018656 3865:1 6919:1 18838:1 66612:1 
5287.017948148889 1459.398740182401 14:1 45:1 1251:1 2857:1 2888:1 11185:1 14212:1 18861:1 18862:1 18863:1 18864:1 18865:1 18866:1 18867:1 18868:1 66612:5 
1030.392397905153 608.163297077821 684:1 757:1 776:1 1128:1 1554:1 1694:1 2605:1 5427:1 6878:1 9786:1 12064:1 13651:1 16624:1 17016:1 18869:1 18870:1 18871:1 18872:1 18873:1 18874:1 18875:1 18876:1 18877:1 18878:1 18879:1 18880:1 18881:1 18882:1 18883:1 18884:1 
39129.94496054775 300000 18885:1 66612:1 
523.7430156743682 183.5766303218633 680:1 769:1 1815:1 1857:1 1865:1 2048:1 2606:1 2642:1 3037:1 3092:1 10134:1 10212:1 10833:1 13592:1 14233:1 15172:1 18049:1 18886:1 18887:1 18888:1 18889:1 18890:1 18891:1 18892:1 18893:1 18894:1 18895:1 18896:1 18897:1 18898:1 18899:1 18900:1 18901:1 18902:1 18903:1 18904:1 18905:1 18906:1 18907:1 18908:1 18909:1 18910:1 18911:1 18912:1 18913:1 18914:1 18915:1 18916:1 18917:1 
1986.881149804156 1604.783690117377 11:1 14:1 45:1 114:1 474:1 747:1 749:1 1572:1 3512:1 6254:1 9127:1 18796:1 18960:1 18961:1 18962:1 18963:1 18964:1 18965:1 18966:1 18967:1 18968:1 18969:1 18970:1 18971:1 18972:1 18973:1 18974:1 18975:1 18976:1 
911.3068417318439 1799.971868951613 684:1 692:1 1702:1 2610:1 4081:1 7258:1 17190:1 18982:1 18983:1 18984:1 18985:1 18986:1 18987:1 18988:1 18989:1 18990:1 18991:1 18992:1 18993:1 18994:1 
2784.909088969633 2856.685452762359 14:1 45:1 1809:1 7589:1 9533:1 17544:1 17547:1 19035:1 19036:1 19037:1 19038:1 19039:1 19040:1 19041:1 19042:1 19043:1 66612:3 
0 239.6282539444202 11:1 14:1 309:1 350:1 368:1 479:1 981:1 1228:1 1641:1 1642:1 2868:1 6675:1 13057:1 17582:1 19044:1 19045:1 19046:1 19047:1 19048:1 19049:1 19050:1 19051:1 19052:1 19053:1 19054:1 19055:1 19056:1 19057:1 19058:1 
1643.471292791545 31271.63369334977 14:1 45:1 145:1 1051:1 2762:1 2763:1 2770:1 2771:1 2772:1 2773:1 66612:2 
4638.675457070329 4247.125804061577 14:1 45:1 70:1 606:1 2256:1 3863:1 15723:1 19088:1 19089:1 19090:1 19091:1 19092:1 19093:1 19094:1 66612:2 
0 1955.904444519437 14:1 517:1 755:1 1128:1 3276:1 6135:1 6652:1 10214:1 12332:1 15341:1 15924:1 16041:1 17720:1 19181:1 19182:1 19183:1 19184:1 19185:1 19186:1 19187:1 19188:1 19189:1 19190:1 19191:1 19192:1 19193:1 19194:1 19195:1 19196:1 19197:1 19198:1 
1252.610794846436 1818.424395256706 14:1 45:1 1441:1 3957:1 9754:1 19211:1 19212:1 19213:1 19214:1 19215:1 19216:1 
120.5653617547983 0 11:1 193:1 204:1 1573:1 2159:1 5646:1 19217:1 19218:1 19219:1 19220:1 19221:1 19222:1 
2885.134016795582 4669.780971916102 14:1 106:1 128:1 1050:1 1297:1 7259:1 10462:1 19231:1 19232:1 19233:1 19234:1 19235:1 19236:1 66612:2 
2048.277109729812 2807.67580882405 8:1 47:1 193:1 204:1 221:1 1915:1 1916:1 1931:1 1932:1 3484:1 5533:1 14440:1 17429:1 19375:1 19376:1 19377:1 19378:1 19379:1 19380:1 19381:1 19382:1 19383:1 19384:1 66612:2 
449.0341257918298 3716.753873337974 8:1 14:1 45:1 106:1 344:1 377:1 388:1 1216:1 1471:1 2046:1 2179:1 5125:1 7522:1 13168:1 13192:1 14568:1 19444:1 19445:1 19446:1 19447:1 19448:1 19449:1 19450:1 19451:1 19452:1 19453:1 19454:1 19455:1 19456:1 66612:4 
1416.847274517852 849.1591473216197 14:1 104:1 124:1 1194:1 1195:1 1207:1 1814:1 6411:1 9324:1 10862:1 10885:1 11727:1 11734:1 11735:1 19505:1 19506:1 19507:1 19508:1 19509:1 19510:1 19511:1 19512:1 19513:1 19514:1 19515:1 19516:1 19517:1 66618:1 
10440.10884159166 11974.16809552734 747:1 5571:1 19573:1 19574:1 19575:1 
2842.884574952645 1947.009862711597 2533:1 3454:1 3659:1 4899:1 11210:1 19576:1 19577:1 19578:1 19579:1 19580:1 19581:1 19582:1 19583:1 19584:1 19585:1 66612:7 
0 310.526889939824 4:1 14:1 45:1 411:1 742:1 4272:1 4477:1 5037:1 6796:1 12685:1 13762:1 16246:1 18751:1 19597:1 19598:1 19599:1 19600:1 19601:1 19602:1 19603:1 19604:1 19605:1 19606:1 66612:1 66619:1 
625.8244725415403 91.21989045268764 684:1 769:1 776:1 939:1 1128:1 1129:1 1551:1 1554:1 1688:1 1694:1 2521:1 2610:1 2613:1 3037:1 3166:1 3795:1 4077:1 4991:1 10168:1 10215:1 12355:1 13608:1 14785:1 15587:1 16925:1 17016:1 18546:1 18565:1 19607:1 19608:1 19609:1 19610:1 19611:1 19612:1 19613:1 19614:1 19615:1 19616:1 19617:1 19618:1 19619:1 19620:1 19621:1 19622:1 19623:1 19624:1 19625:1 19626:1 19627:1 19628:1 19629:1 19630:1 19631:1 19632:1 19633:1 19634:1 19635:1 19636:1 19637:1 19638:1 19639:1 19640:1 19641:1 19642:1 19643:1 19644:1 19645:1 19646:1 19647:1 19648:1 19649:1 66612:5 
6093.465896668414 5614.691592765792 382:1 1982:1 2853:1 3729:1 5213:1 19650:1 19651:1 19652:1 19653:1 19654:1 19655:1 19656:1 19657:1 19658:1 19659:1 66612:3 
3182.359542001135 3122.527097069648 145:1 152:1 193:1 204:1 613:1 2853:1 3823:1 8220:1 11266:1 11277:1 12402:1 19672:1 19673:1 19674:1 19675:1 19676:1 66612:3 66620:1 
1062.171796924408 1129.311460931212 907:1 1531:1 2861:1 5916:1 6595:1 8969:1 11356:1 19688:1 19689:1 19690:1 19691:1 19692:1 19693:1 19694:1 19695:1 19696:1 19697:1 19698:1 19699:1 19700:1 19701:1 66612:4 
1536.715660812976 1127.853503425122 586:1 1531:1 1540:1 1845:1 1870:1 4870:1 8182:1 14766:1 17490:1 19737:1 19738:1 19739:1 19740:1 19741:1 19742:1 19743:1 19744:1 19745:1 19746:1 19747:1 19748:1 19749:1 19750:1 19751:1 19752:1 19753:1 19754:1 19755:1 19756:1 19757:1 19758:1 19759:1 19760:1 19761:1 19762:1 19763:1 19764:1 19765:1 19766:1 66612:3 
36558.02776567132 46396.2821998232 5463:1 
1474.869259127045 3182.949177642558 8:1 178:1 802:1 1845:1 3526:1 7263:1 8668:1 8669:1 8681:1 18401:1 18406:1 19734:1 19817:1 19818:1 19819:1 19820:1 19821:1 19822:1 19823:1 19824:1 66612:4 
13750.00422789571 1827.119144016421 14:1 45:1 103:1 123:1 192:1 3625:1 4245:1 7970:1 7972:1 19936:1 66612:1 66614:0.75 66616:0.75 
5941.489174146344 5703.398712678981 478:1 6652:1 8373:1 20002:1 20003:1 20004:1 20005:1 20006:1 20007:1 66612:2 66614:0.625 66616:0.625 
3932.498828978354 4064.01429292038 193:1 204:1 3294:1 5819:1 8317:1 20021:1 20022:1 20023:1 20024:1 20025:1 20026:1 20027:1 20028:1 
5043.945966741509 6896.906532481295 14:1 45:1 479:1 996:1 1032:1 1907:1 2427:1 13063:1 15576:1 20037:1 20038:1 20039:1 20040:1 20041:1 
4.572540477589936 0 684:1 769:1 939:1 1164:1 1251:1 1688:1 2308:1 2429:1 2437:1 7210:1 9454:1 13487:1 13494:1 14981:1 16357:1 20045:1 20046:1 20047:1 20048:1 20049:1 20050:1 20051:1 20052:1 20053:1 20054:1 20055:1 20056:1 20057:1 20058:1 20059:1 20060:1 20061:1 20062:1 20063:1 20064:1 20065:1 20066:1 20067:1 66612:2 
4485.958967715356 1751.563118720073 725:1 3257:1 7765:1 20099:1 20100:1 20101:1 20102:1 20103:1 20104:1 66612:1 
1292.384004395603 1042.106001234125 14:1 45:1 413:1 441:1 604:1 618:1 1015:1 1019:1 1401:1 2027:1 3376:1 4537:1 7908:1 20224:1 20225:1 20226:1 20227:1 20228:1 20229:1 20230:1 20231:1 20232:1 20233:1 20234:1 20235:1 20236:1 20237:1 20238:1 20239:1 20240:1 20241:1 20242:1 20243:1 20244:1 20245:1 20246:1 66612:2 
3579.703408568902 2808.9818501058 14:1 45:1 71:1 105:1 2179:1 2193:1 4620:1 10040:1 20262:1 20263:1 20264:1 20265:1 20266:1 20267:1 20268:1 20269:1 20270:1 66612:1 
1493.910149623277 2880.239168407118 8:1 11:1 14:1 15:1 45:1 84:1 2691:1 4374:1 4999:1 5283:1 6349:1 6357:1 9767:1 20271:1 20272:1 20273:1 20274:1 20275:1 20276:1 20277:1 20278:1 20279:1 20280:1 20281:1 20282:1 20283:1 20284:1 
33295.48572658176 12195.43392927108 1981:1 16241:1 20285:1 
200.7032167612098 0 14:1 45:1 2043:1 2923:1 4239:1 14438:1 20302:1 20303:1 20304:1 20305:1 20306:1 20307:1 20308:1 20309:1 20310:1 20311:1 20312:1 66612:2 
2256.120795415488 2488.592085498568 14:1 45:1 110:1 950:1 2179:1 2193:1 5945:1 6765:1 7690:1 7918:1 20336:1 20337:1 20338:1 20339:1 20340:1 20341:1 20342:1 20343:1 20344:1 20345:1 20346:1 20347:1 66612:1 
2478.256857342552 2000.203520113256 14:1 45:1 823:1 3906:1 4631:1 5507:1 5826:1 7839:1 14683:1 20355:1 20356:1 20357:1 20358:1 20359:1 20360:1 20361:1 20362:1 66612:1 
1057.300794286011 1360.821465356752 684:1 1164:1 16093:1 20375:1 20376:1 20377:1 20378:1 20379:1 20380:1 
6736.509100791186 8490.907610033031 1050:1 2102:1 2280:1 20423:1 20424:1 20425:1 20426:1 66618:1 
1344.629279482099 7206.180230246197 993:1 994:1 1004:1 4183:1 20507:1 20508:1 20509:1 66612:1 
17577.41679409695 14974.42764752652 14:1 45:1 20548:1 20549:1 66612:1 
11808.71675920982 13120.28575526686 106:1 412:1 981:1 1149:1 11254:1 20582:1 20583:1 66612:1 
690.121143601554 876.2230084651667 4:1 70:1 351:1 493:1 1356:1 1993:1 3344:1 4437:1 5210:1 20705:1 20706:1 20707:1 20708:1 20709:1 20710:1 20711:1 20712:1 20713:1 20714:1 20715:1 20716:1 20717:1 20718:1 20719:1 20720:1 20721:1 20722:1 20723:1 20724:1 66612:7 66619:1 
2364.809787239562 3488.978448875269 8:1 14:1 45:1 604:1 3761:1 4180:1 11631:1 15934:1 20777:1 20778:1 20779:1 20780:1 20781:1 20782:1 20783:1 20784:1 66620:1 
1494.70467431755 2158.763594385069 14:1 45:1 684:1 1128:1 1164:1 3173:1 6536:1 10201:1 10272:1 20799:1 20800:1 20801:1 20802:1 20803:1 
1985.125166032599 2257.356248224979 14:1 45:1 573:1 684:1 1685:1 3130:1 3791:1 8969:1 9671:1 14759:1 20852:1 20853:1 20854:1 20855:1 20856:1 20857:1 66612:1 
5155.05910038882 5927.980172581141 8226:1 21004:1 21005:1 21006:1 21007:1 21008:1 21009:1 
914.4937313964801 384.2803931573304 14:1 45:1 273:1 435:1 552:1 604:1 624:1 647:1 684:1 689:1 769:1 1124:1 1231:1 1251:1 1748:1 1749:1 2358:1 2435:1 2864:1 5702:1 10197:1 10706:1 13598:1 14325:1 21010:1 21011:1 21012:1 21013:1 21014:1 21015:1 21016:1 21017:1 21018:1 21019:1 21020:1 21021:1 21022:1 21023:1 21024:1 21025:1 21026:1 21027:1 21028:1 21029:1 21030:1 21031:1 21032:1 21033:1 21034:1 21035:1 21036:1 21037:1 21038:1 21039:1 21040:1 21041:1 21042:1 21043:1 21044:1 21045:1 21046:1 21047:1 21048:1 21049:1 21050:1 21051:1 21052:1 21053:1 21054:1 21055:1 66612:3 
3990.8978151806 2238.229162389985 14:1 45:1 51:1 483:1 878:1 879:1 887:1 2852:1 5306:1 9576:1 11303:1 14873:1 14880:1 21059:1 21060:1 21061:1 21062:1 21063:1 21064:1 21065:1 21066:1 21067:1 66612:1 
2278.436250464509 5570.18082456705 14:1 45:1 266:1 455:1 573:1 2981:1 2988:1 2989:1 3005:1 3016:1 3032:1 7639:1 11616:1 11617:1 11618:1 11619:1 11622:1 11623:1 11624:1 11625:1 11627:1 11628:1 21096:1 21097:1 21098:1 21099:1 21100:1 21101:1 21102:1 21103:1 21104:1 66612:3 
1637.556293436025 0 755:1 771:1 1130:1 1815:1 2305:1 3092:1 5426:1 8970:1 12880:1 15326:1 21149:1 21150:1 21151:1 21152:1 21153:1 21154:1 21155:1 21156:1 21157:1 21158:1 21159:1 21160:1 21161:1 21162:1 21163:1 21164:1 21165:1 66620:2 
763.6822403999132 1951.697430236336 11:1 388:1 493:1 1002:1 3280:1 4710:1 5670:1 21166:1 21167:1 21168:1 21169:1 21170:1 21171:1 21172:1 21173:1 21174:1 21175:1 21176:1 21177:1 21178:1 66612:3 
896.1226200206312 378.7974756879549 14:1 45:1 697:1 1251:1 2126:1 4899:1 5612:1 5698:1 7924:1 11132:1 11137:1 11226:1 16850:1 17303:1 19576:1 21179:1 21180:1 21181:1 21182:1 21183:1 21184:1 21185:1 21186:1 21187:1 21188:1 21189:1 21190:1 21191:1 21192:1 21193:1 21194:1 21195:1 21196:1 21197:1 21198:1 21199:1 21200:1 21201:1 21202:1 21203:1 21204:1 66612:4 
1912.229548376974 3307.266609966823 56:1 3898:1 8564:1 11266:1 13794:1 21205:1 21206:1 21207:1 21208:1 
18204.61778662877 16846.02926021144 14:1 45:1 14568:1 21258:1 
1094.906835487184 7395.74110137907 14:1 45:1 103:1 123:1 145:1 193:1 204:1 613:1 2659:1 2763:1 7424:1 7556:1 14111:1 21278:1 21279:1 21280:1 21281:1 21282:1 21283:1 66612:3 66620:1 
96.47301631916223 173.2866564073726 11:1 14:1 21:1 45:1 71:1 75:1 137:1 268:1 344:1 448:1 517:1 586:1 729:1 906:1 918:1 950:1 1030:1 1081:1 1086:1 1259:1 1266:1 1286:1 1356:1 1369:1 1531:1 1870:1 1910:1 2012:1 2036:1 2037:1 2105:1 2199:1 2291:1 2427:1 2926:1 3280:1 3333:1 3381:1 3388:1 3449:1 3660:1 3759:1 3912:1 4870:1 5037:1 5634:1 6683:1 6856:1 7263:1 7274:1 8773:1 10024:1 11709:1 12252:1 12332:1 13225:1 14424:1 17179:1 17490:1 17763:1 17899:1 20274:1 20707:1 21310:1 21311:1 21312:1 21313:1 21314:1 21315:1 21316:1 21317:1 21318:1 21319:1 21320:1 21321:1 21322:1 21323:1 21324:1 21325:1 21326:1 21327:1 21328:1 21329:1 21330:1 21331:1 21332:1 21333:1 21334:1 21335:1 21336:1 21337:1 21338:1 21339:1 21340:1 21341:1 21342:1 21343:1 21344:1 21345:1 21346:1 21347:1 21348:1 21349:1 21350:1 21351:1 21352:1 21353:1 21354:1 21355:1 21356:1 21357:1 21358:1 21359:1 21360:1 21361:1 21362:1 21363:1 21364:1 21365:1 21366:1 21367:1 21368:1 21369:1 21370:1 21371:1 21372:1 21373:1 21374:1 21375:1 21376:1 21377:1 21378:1 21379:1 21380:1 21381:1 21382:1 21383:1 21384:1 21385:1 21386:1 21387:1 21388:1 21389:1 21390:1 21391:1 21392:1 21393:1 21394:1 21395:1 21396:1 21397:1 21398:1 21399:1 21400:1 21401:1 21402:1 21403:1 21404:1 21405:1 21406:1 21407:1 21408:1 21409:1 21410:1 21411:1 21412:1 21413:1 21414:1 21415:1 21416:1 21417:1 21418:1 21419:1 21420:1 21421:1 21422:1 21423:1 21424:1 21425:1 21426:1 21427:1 21428:1 21429:1 21430:1 21431:1 21432:1 21433:1 21434:1 21435:1 21436:1 21437:1 21438:1 21439:1 21440:1 21441:1 21442:1 21443:1 21444:1 21445:1 66612:26 
0 1379.18566976059 725:1 16241:1 21446:1 
4399.339214957429 3921.287673804967 14:1 4796:1 12702:1 17414:1 21457:1 21458:1 21459:1 
8173.494405102222 13925.76292623557 14:1 613:1 4033:1 4637:1 4651:1 7424:1 14523:1 21476:1 21477:1 21478:1 21479:1 66612:1 66620:1 
2543.903964069817 2570.353516003178 14:1 344:1 955:1 1310:1 3280:1 3344:1 3907:1 21528:1 21529:1 21530:1 21531:1 21532:1 21533:1 21534:1 21535:1 21536:1 21537:1 21538:1 21539:1 66612:6 
2521.168878089803 721.7182327927324 334:1 354:1 1019:1 2693:1 7159:1 14341:1 20382:1 21554:1 21555:1 21556:1 21557:1 21558:1 21559:1 66612:1 
1651.717736367665 288.0914692180459 14:1 380:1 493:1 686:1 1267:1 1845:1 3663:1 4443:1 12464:1 15796:1 21642:1 21643:1 21644:1 21645:1 21646:1 21647:1 21648:1 21649:1 21650:1 21651:1 21652:1 21653:1 21654:1 21655:1 21656:1 21657:1 21658:1 21659:1 21660:1 21661:1 21662:1 21663:1 21664:1 21665:1 21666:1 21667:1 21668:1 21669:1 21670:1 21671:1 21672:1 66612:6 
1044.171452863362 1943.714879309958 11:1 104:1 106:1 172:1 241:1 1507:1 1612:1 3625:1 4348:1 15815:1 16676:1 21674:1 21675:1 21676:1 21677:1 21678:1 21679:1 21680:1 21681:1 21682:1 21683:1 21684:1 21685:1 21686:1 66612:4 66618:1 
18507.19834087851 5688.257969664145 105:1 7721:1 21759:1 21760:1 21761:1 
6721.515808334348 5386.295967006345 474:1 5878:1 7251:1 21767:1 21768:1 21769:1 21770:1 21771:1 21772:1 
388.4010481359808 361.3637181384088 691:1 774:1 939:1 1130:1 1251:1 1554:1 1689:1 1713:1 2037:1 2041:1 2068:1 2429:1 3037:1 3454:1 3501:1 3503:1 4081:1 5085:1 5147:1 5465:1 6728:1 7862:1 8181:1 10169:1 14981:1 15376:1 17873:1 18983:1 20074:1 21773:1 21774:1 21775:1 21776:1 21777:1 21778:1 21779:1 21780:1 21781:1 21782:1 21783:1 21784:1 21785:1 21786:1 21787:1 21788:1 21789:1 21790:1 21791:1 21792:1 21793:1 21794:1 21795:1 66612:3 
2006.977551173264 1595.61143053335 14:1 82:1 217:1 955:1 1310:1 4058:1 9907:1 10112:1 13713:1 16433:1 20754:1 21836:1 21837:1 21838:1 21839:1 21840:1 21841:1 21842:1 21843:1 21844:1 21845:1 66612:4 
5296.306271932644 4268.543511128742 14:1 45:1 104:1 548:1 1387:1 3297:1 3299:1 11024:1 21887:1 21888:1 21889:1 21890:1 21891:1 21892:1 21893:1 21894:1 21895:1 66612:2 66618:1 
0 314.8145362167476 106:1 129:1 435:1 823:1 993:1 997:1 1003:1 2876:1 3293:1 8319:1 21949:1 21950:1 21951:1 21952:1 21953:1 21954:1 21955:1 21956:1 66619:1 
4815.257074133106 7402.89537511916 382:1 413:1 3649:1 5536:1 8852:1 9525:1 21985:1 21986:1 21987:1 21988:1 21989:1 66612:3 66614:0.0035235318 66616:0.0035235318 
11260.31372387473 11918.25486162309 10707:1 22027:1 22028:1 
292.4670268212984 331.9202401450054 684:1 689:1 691:1 1128:1 1172:1 1557:1 1566:1 1684:1 3166:1 6135:1 6728:1 6740:1 11340:1 20528:1 20818:1 21122:1 22033:1 22034:1 22035:1 22036:1 22037:1 22038:1 22039:1 22040:1 22041:1 22042:1 22043:1 22044:1 22045:1 22046:1 22047:1 22048:1 22049:1 22050:1 22051:1 22052:1 22053:1 22054:1 22055:1 22056:1 22057:1 22058:1 22059:1 22060:1 22061:1 22062:1 66612:1 
970.6039155031978 28.70161847156946 11:1 14:1 45:1 51:1 71:1 193:1 307:1 410:1 684:1 981:1 1081:1 1251:1 1554:1 1858:1 1869:1 2048:1 3177:1 3431:1 4585:1 4806:1 4994:1 9050:1 9476:1 9576:1 10135:1 10635:1 10814:1 11223:1 11342:1 13033:1 13595:1 15239:1 16368:1 17418:1 22134:1 22135:1 22136:1 22137:1 22138:1 22139:1 22140:1 22141:1 22142:1 22143:1 22144:1 22145:1 22146:1 22147:1 22148:1 22149:1 22150:1 22151:1 22152:1 22153:1 22154:1 22155:1 22156:1 22157:1 22158:1 22159:1 22160:1 22161:1 22162:1 22163:1 22164:1 22165:1 22166:1 22167:1 22168:1 22169:1 22170:1 22171:1 22172:1 22173:1 22174:1 22175:1 22176:1 22177:1 22178:1 22179:1 22180:1 22181:1 22182:1 22183:1 22184:1 22185:1 22186:1 22187:1 66612:1 
1032.48747324518 0 585:1 689:1 1857:1 2198:1 2307:1 2386:1 4870:1 5147:1 8182:1 12105:1 14226:1 14252:1 15841:1 16090:1 16091:1 16092:1 16093:1 16094:1 16095:1 16096:1 16097:1 16098:1 16099:1 16100:1 16101:1 16102:1 16103:1 66612:2 
2529.72351211867 5330.844019173454 11:1 14:1 45:1 110:1 226:1 473:1 1356:1 1581:1 3823:1 6113:1 6114:1 6400:1 9906:1 17346:1 21626:1 21627:1 21628:1 21629:1 21631:1 21632:1 21633:1 21634:1 21635:1 21636:1 21637:1 21638:1 21639:1 21984:1 22279:1 22280:1 22281:1 22282:1 22283:1 22284:1 22285:1 66612:4 
16377.56806924275 10774.80410945968 200:1 613:1 14523:1 14526:1 22286:1 66620:1 
1496.607590605728 2648.18563011783 11:1 14:1 45:1 77:1 226:1 473:1 2278:1 4727:1 12738:1 15960:1 15965:1 20592:1 22287:1 22288:1 22289:1 22290:1 22291:1 22292:1 22293:1 22294:1 22295:1 22296:1 22297:1 22298:1 22299:1 22300:1 22301:1 22302:1 22303:1 22304:1 66612:4 
1196.07813699541 4940.514150149971 14:1 45:1 613:1 774:1 777:1 939:1 1128:1 1688:1 1858:1 5271:1 7424:1 15841:1 18642:1 19618:1 22318:1 22319:1 22320:1 22321:1 22322:1 22323:1 22324:1 22325:1 22326:1 22327:1 22328:1 22329:1 22330:1 66620:1 
108174.2439966604 89385.21993800087 682:1 
667.1675988827591 1008.926016529977 583:1 586:1 590:1 600:1 1869:1 2531:1 2864:1 4870:1 4899:1 8798:1 12368:1 12970:1 12975:1 17490:1 21121:1 22402:1 22403:1 22404:1 22405:1 22406:1 22407:1 22408:1 22409:1 22410:1 22411:1 22412:1 22413:1 22414:1 22415:1 22416:1 22417:1 22418:1 22419:1 22420:1 22421:1 66612:3 
1026.655325003912 354.4295663937855 677:1 684:1 939:1 1857:1 3130:1 3772:1 5266:1 10453:1 15844:1 22422:1 22423:1 22424:1 22425:1 22426:1 22427:1 22428:1 22429:1 22430:1 22431:1 22432:1 22433:1 22434:1 22435:1 22436:1 22437:1 22438:1 22439:1 22440:1 22441:1 22442:1 22443:1 22444:1 22445:1 22446:1 66612:1 
2347.10897812747 2364.761274243861 14:1 684:1 757:1 777:1 939:1 4868:1 8613:1 9440:1 10582:1 15340:1 15379:1 16255:1 22466:1 22467:1 22468:1 22469:1 22470:1 66612:1 
14853.69190228601 15062.31524595168 14:1 374:1 1806:1 22511:1 22512:1 
1315.310464147815 1505.961423427327 8:1 14:1 221:1 493:1 586:1 1251:1 3911:1 4122:1 6407:1 6426:1 7261:1 11212:1 13713:1 17664:1 19806:1 20606:1 22614:1 22615:1 22616:1 22617:1 22618:1 22619:1 22620:1 22621:1 22622:1 22623:1 22624:1 22625:1 22626:1 66612:5 
564.2805841082366 108.5436436186041 14:1 45:1 684:1 771:1 939:1 1849:1 2019:1 4868:1 5508:1 6728:1 7461:1 11223:1 14547:1 15070:1 16181:1 17500:1 20076:1 22511:1 22627:1 22628:1 22629:1 22630:1 22631:1 22632:1 22633:1 22634:1 22635:1 22636:1 22637:1 22638:1 66612:2 
0 1198.614202829534 14:1 15:1 221:1 1489:1 4436:1 5932:1 6058:1 8918:1 9382:1 10707:1 11989:1 13122:1 18047:1 22639:1 22640:1 22641:1 22642:1 22643:1 22644:1 22645:1 22646:1 22647:1 22648:1 22649:1 22650:1 22651:1 22652:1 22653:1 22654:1 22655:1 22656:1 66612:5 
1206.513398605481 693.6174564405616 684:1 939:1 2229:1 5469:1 5689:1 5707:1 6727:1 8184:1 20128:1 22676:1 22677:1 22678:1 22679:1 22680:1 22681:1 22682:1 22683:1 22684:1 22685:1 22686:1 22687:1 22688:1 66612:4 66618:1 
2530.706824624079 134.0775859587677 14:1 176:1 353:1 586:1 1251:1 1252:1 1531:1 1540:1 1814:1 7446:1 9279:1 16833:1 16838:1 22802:1 22803:1 22804:1 22805:1 22806:1 22807:1 22808:1 22809:1 66612:5 
3264.116464474097 3560.121595638596 15:1 109:1 193:1 204:1 263:1 388:1 796:1 951:1 1323:1 1356:1 1837:1 3911:1 4120:1 5979:1 8137:1 22827:1 22828:1 22829:1 22830:1 22831:1 22832:1 22833:1 22834:1 22835:1 22836:1 22837:1 22838:1 22839:1 22840:1 22841:1 66612:4 
391.3444709639167 1672.485466024843 14:1 106:1 110:1 129:1 1124:1 1691:1 2429:1 2435:1 6728:1 7690:1 7866:1 11567:1 12653:1 16008:1 20076:1 22920:1 22921:1 22922:1 22923:1 22924:1 22925:1 22926:1 22927:1 22928:1 22929:1 
3183.554829641705 3339.398153810122 11:1 14:1 45:1 114:1 140:1 145:1 149:1 173:1 431:1 613:1 631:1 747:1 4270:1 4478:1 4536:1 5422:1 6253:1 6531:1 9598:1 16744:1 22967:1 22968:1 22969:1 22970:1 22971:1 22972:1 22973:1 22974:1 22975:1 22976:1 22977:1 22978:1 66618:1 66620:1 
0 1856.674131074076 4:1 14:1 45:1 60:1 826:1 1572:1 1579:1 23005:1 23006:1 23007:1 23008:1 23009:1 23010:1 23011:1 23012:1 23013:1 23014:1 23015:1 23016:1 23017:1 66612:4 66619:1 
1474.295368004151 2300.511653685887 8:1 11:1 14:1 15:1 351:1 1461:1 7181:1 7359:1 9576:1 11055:1 19411:1 23022:1 23023:1 23024:1 23025:1 23026:1 23027:1 23028:1 23029:1 23030:1 23031:1 23032:1 23033:1 23034:1 23035:1 23036:1 23037:1 23038:1 23039:1 23040:1 23041:1 
4615.375638208986 6885.432814997533 14:1 45:1 145:1 613:1 2327:1 7424:1 11693:1 17740:1 18077:1 18805:1 20514:1 23106:1 23107:1 23108:1 23109:1 66612:1 66620:4 
3229.800607697601 3911.494090271859 11:1 14:1 45:1 193:1 204:1 217:1 226:1 473:1 609:1 1610:1 3390:1 4072:1 5185:1 6452:1 12182:1 12190:1 12191:1 13974:1 17464:1 23110:1 23111:1 23112:1 23113:1 23114:1 23115:1 23116:1 23117:1 23118:1 66612:2 
2580.607822674423 2908.317228271647 82:1 281:1 1653:1 2103:1 3848:1 3852:1 8922:1 16558:1 16583:1 23140:1 23141:1 23142:1 23143:1 23144:1 23145:1 23146:1 23147:1 66612:2 
2743.382807846417 1704.994047882317 8:1 14:1 448:1 3638:1 5301:1 5633:1 9767:1 11709:1 23184:1 23185:1 23186:1 23187:1 23188:1 23189:1 23190:1 23191:1 23192:1 23193:1 23194:1 23195:1 23196:1 23197:1 23198:1 23199:1 23200:1 23201:1 23202:1 66612:6 
2061.01055034698 1516.749489223171 638:1 725:1 1788:1 2300:1 2427:1 2764:1 3294:1 4183:1 5249:1 12877:1 13305:1 13314:1 23313:1 23314:1 23315:1 23316:1 23317:1 23318:1 23319:1 66612:1 
4068.410935003686 6241.555952574396 152:1 8163:1 23363:1 23364:1 23365:1 23366:1 23367:1 
471.4551854663948 766.8214939007004 14:1 493:1 1610:1 3391:1 8308:1 13004:1 23388:1 23389:1 23390:1 23391:1 23392:1 23393:1 23394:1 23395:1 23396:1 23397:1 23398:1 23399:1 23400:1 23401:1 23402:1 23403:1 23404:1 23405:1 23406:1 23407:1 23408:1 23409:1 23410:1 23411:1 23412:1 23413:1 66612:3 66619:1 
6610.963619942669 6572.510558575616 138:1 981:1 1907:1 23414:1 23415:1 23416:1 23417:1 23418:1 23419:1 66612:1 
5734.463651925605 1546.834525002662 551:1 747:1 1015:1 7721:1 8228:1 13710:1 23486:1 23487:1 23488:1 23489:1 23490:1 66612:1 
2175.851448457533 2907.847756198624 8:1 14:1 19:1 374:1 388:1 548:1 1806:1 1814:1 3897:1 3936:1 4302:1 4604:1 9323:1 9328:1 9623:1 15563:1 23466:1 23491:1 23492:1 23493:1 23494:1 23495:1 23496:1 23497:1 23498:1 66612:5 
7058.357269082463 3093.327609050008 14:1 45:1 23502:1 23503:1 23504:1 23505:1 66612:1 
506.7235619300885 840.3014691353085 193:1 204:1 342:1 455:1 1033:1 1546:1 2838:1 2951:1 3815:1 4104:1 8641:1 23535:1 23589:1 23590:1 23591:1 23592:1 23593:1 23594:1 23595:1 23596:1 23597:1 23598:1 23599:1 23600:1 23601:1 23602:1 23603:1 66612:2 
606.4691045455013 500.5366662453075 14:1 45:1 1094:1 1150:1 3151:1 3294:1 5878:1 23631:1 23632:1 23633:1 23634:1 23635:1 23636:1 23637:1 23638:1 23639:1 23640:1 23641:1 23642:1 23643:1 23644:1 23645:1 
3526.143867413941 4540.923581211345 642:1 1050:1 1643:1 7799:1 17932:1 23661:1 23662:1 23663:1 23664:1 23665:1 23666:1 66612:2 66614:0.13636364 66616:0.13636364 
1310.893389413656 902.6162672562889 11:1 14:1 21:1 45:1 111:1 914:1 951:1 11417:1 13032:1 18842:1 23736:1 23737:1 23738:1 23739:1 23740:1 23741:1 23742:1 23743:1 23744:1 23745:1 23746:1 23747:1 23748:1 23749:1 23750:1 23751:1 23752:1 23753:1 23754:1 66612:3 66614:0.029269972 66616:0.029269972 
2153.900023579765 509.2357544386015 14:1 45:1 684:1 1164:1 2304:1 2429:1 2437:1 3243:1 3501:1 4836:1 10163:1 13647:1 15545:1 23762:1 23763:1 23764:1 
1505.467191599659 191.0610408484113 14:1 45:1 689:1 693:1 774:1 1164:1 2230:1 4807:1 8187:1 8202:1 8203:1 8979:1 10170:1 10562:1 23779:1 23780:1 23781:1 23782:1 23783:1 23784:1 23785:1 23786:1 23787:1 23788:1 
788.2066751493894 0 14:1 15:1 70:1 351:1 369:1 552:1 1291:1 1318:1 3344:1 3381:1 7391:1 8285:1 8685:1 14856:1 23798:1 23799:1 23800:1 23801:1 23802:1 23803:1 23804:1 23805:1 23806:1 66612:4 66619:1 
3940.626254060453 4681.9325809071 266:1 7018:1 9338:1 10011:1 23835:1 23836:1 23837:1 23838:1 23839:1 23840:1 23841:1 66612:2 
4129.083374367867 3235.057320417224 1786:1 4472:1 6940:1 7135:1 9231:1 18739:1 23842:1 23843:1 23844:1 23845:1 23846:1 23847:1 23848:1 23849:1 23850:1 
2423.555216683854 2607.922951944635 14:1 747:1 1325:1 2301:1 7160:1 8227:1 13403:1 14048:1 24037:1 24038:1 24039:1 24040:1 24041:1 24042:1 24043:1 24044:1 24045:1 24046:1 24047:1 24048:1 24049:1 24050:1 24051:1 24052:1 24053:1 24054:1 24055:1 66612:1 
549.3222353048262 23.46496659889627 684:1 939:1 1128:1 1164:1 2052:1 2233:1 3173:1 4806:1 10587:1 16925:1 19834:1 20799:1 20801:1 24110:1 24111:1 24112:1 24113:1 24114:1 24115:1 24116:1 24117:1 24118:1 24119:1 24120:1 24121:1 24122:1 24123:1 66612:1 
9397.423617424727 11059.68772265534 7565:1 24124:1 24125:1 24126:1 24127:1 66612:1 
16812.20967817405 19013.9531666283 71:1 24216:1 24217:1 
0 164.258369896647 684:1 1128:1 1164:1 1696:1 2430:1 2616:1 3128:1 3142:1 12197:1 24247:1 24248:1 24249:1 24250:1 24251:1 24252:1 24253:1 24254:1 24255:1 24256:1 24257:1 24258:1 66612:1 
0 1910.997434052103 106:1 613:1 684:1 777:1 787:1 5164:1 5266:1 7209:1 11693:1 16688:1 21231:1 23635:1 23811:1 24272:1 24273:1 24274:1 24275:1 24276:1 24277:1 24278:1 24279:1 24280:1 24281:1 24282:1 66612:1 66620:2 
3082.67624202295 2672.529953191383 14:1 45:1 1002:1 3580:1 13065:1 24309:1 24310:1 24311:1 24312:1 24313:1 24314:1 24315:1 24316:1 24317:1 24318:1 24319:1 24320:1 66612:1 
1474.671359773169 1726.487164246659 8:1 15:1 110:1 1379:1 1660:1 1939:1 2453:1 3547:1 12618:1 12619:1 12774:1 14440:1 16044:1 18613:1 23268:1 24357:1 24358:1 24359:1 24360:1 24361:1 24362:1 24363:1 24364:1 24365:1 24366:1 24367:1 24368:1 24369:1 24370:1 24371:1 24372:1 24373:1 24374:1 24375:1 24376:1 24377:1 24378:1 24379:1 66612:5 
0 1240.883227145438 145:1 374:1 413:1 479:1 1962:1 2017:1 2135:1 3863:1 5251:1 5262:1 5756:1 5757:1 7604:1 21814:1 21815:1 21816:1 21817:1 21818:1 21819:1 21820:1 21821:1 21822:1 21823:1 66612:2 
4362.234882830924 2969.43602555372 14:1 45:1 307:1 747:1 981:1 19139:1 19140:1 24400:1 24401:1 24402:1 24403:1 24404:1 24405:1 24406:1 24407:1 24408:1 24409:1 
0 1060.734349934211 684:1 695:1 756:1 770:1 1685:1 3130:1 3791:1 5471:1 10499:1 16925:1 24451:1 24452:1 24453:1 24454:1 24455:1 24456:1 24457:1 24458:1 24459:1 24460:1 24461:1 24462:1 24463:1 24464:1 24465:1 
733.1215358835869 1713.615916418251 11:1 14:1 16:1 493:1 522:1 955:1 5980:1 11892:1 11893:1 11894:1 11901:1 17674:1 19962:1 24536:1 24537:1 24538:1 24539:1 24540:1 24541:1 24542:1 24543:1 24544:1 24545:1 24546:1 24547:1 24548:1 24549:1 24550:1 24551:1 24552:1 24553:1 24554:1 24555:1 24556:1 66612:4 
37275.42351747518 37281.76446652487 24557:1 
196.0776395082903 511.8106088153183 14:1 45:1 195:1 374:1 727:1 1032:1 1041:1 2811:1 3257:1 3293:1 3858:1 3871:1 4182:1 5248:1 5255:1 17271:1 24626:1 24627:1 24628:1 24629:1 24630:1 24631:1 24632:1 24633:1 24634:1 24635:1 24636:1 24637:1 24638:1 24639:1 24640:1 24641:1 66612:1 
3533.672046959856 0 14:1 45:1 684:1 694:1 939:1 1124:1 1815:1 2435:1 3092:1 15103:1 15109:1 15110:1 24647:1 24648:1 24649:1 24650:1 24651:1 24652:1 24653:1 66612:2 
3555.739940543116 3599.084878248238 14:1 45:1 613:1 648:1 1656:1 2132:1 2514:1 3957:1 8413:1 16688:1 22255:1 24512:1 24654:1 24655:1 24656:1 24657:1 24658:1 24659:1 24660:1 24661:1 24662:1 24663:1 66612:2 66620:1 
589.5026801468214 367.5181995058816 684:1 1128:1 1688:1 1857:1 2610:1 2613:1 4800:1 6849:1 6873:1 24677:1 24678:1 24679:1 24680:1 24681:1 24682:1 24683:1 24684:1 24685:1 24686:1 24687:1 24688:1 
0 919.1016641494065 11:1 114:1 684:1 696:1 757:1 771:1 939:1 1128:1 1164:1 1251:1 1688:1 3173:1 4904:1 9454:1 10562:1 14331:1 14332:1 15503:1 24764:1 24765:1 24766:1 24767:1 24768:1 24769:1 24770:1 24771:1 24772:1 24773:1 24774:1 24775:1 24776:1 24777:1 24778:1 24779:1 24780:1 24781:1 66612:1 
929.2866148532685 2034.133302657535 8:1 11:1 14:1 169:1 172:1 173:1 186:1 840:1 857:1 3906:1 4514:1 8285:1 9976:1 11804:1 24790:1 24791:1 24792:1 24793:1 24794:1 24795:1 24796:1 24797:1 24798:1 24799:1 24800:1 24801:1 24802:1 24803:1 24804:1 24805:1 24806:1 24807:1 24808:1 24809:1 24810:1 66612:1 
2475.581045689784 3648.700099059575 70:1 106:1 129:1 193:1 380:1 457:1 1610:1 1832:1 1910:1 2124:1 5739:1 6460:1 24832:1 24833:1 24834:1 24835:1 24836:1 24837:1 24838:1 24839:1 24840:1 24841:1 24842:1 24843:1 24844:1 66612:6 
8917.921671330243 10835.1072519023 11:1 14:1 45:1 106:1 4585:1 20733:1 20748:1 24845:1 
6732.300469391903 6478.097926908134 14:1 217:1 455:1 456:1 469:1 3413:1 4378:1 4387:1 4388:1 5189:1 24866:1 24867:1 24868:1 66612:2 
16979.74028481876 31142.57159163453 1123:1 10961:1 24878:1 
2194.221304354766 0 14:1 45:1 105:1 1032:1 2134:1 3323:1 3329:1 5281:1 14515:1 20851:1 24881:1 24882:1 24883:1 24884:1 24885:1 24886:1 24887:1 24888:1 24889:1 24890:1 24891:1 66612:1 
3960.688330278485 3022.875271845008 140:1 193:1 195:1 204:1 603:1 1035:1 2853:1 5043:1 6535:1 7872:1 8568:1 11351:1 13829:1 14381:1 17102:1 23807:1 24892:1 24893:1 24894:1 24895:1 24896:1 24897:1 24898:1 24899:1 66618:1 66620:1 
789.9717038682043 1317.603579194038 11:1 14:1 19:1 493:1 1447:1 1473:1 1479:1 3175:1 3906:1 4024:1 5225:1 5670:1 9637:1 15630:1 15644:1 24948:1 24949:1 24950:1 24951:1 24952:1 24953:1 24954:1 24955:1 24956:1 24957:1 24958:1 24959:1 24960:1 24961:1 24962:1 24963:1 24964:1 24965:1 66612:8 
6042.00835830023 3944.038947891165 193:1 204:1 4180:1 10040:1 25002:1 25003:1 
5753.961448022123 5207.163671763405 193:1 204:1 374:1 3727:1 5756:1 5757:1 25074:1 25075:1 25076:1 25077:1 25078:1 25079:1 
1652.108290579083 1827.389551864827 697:1 777:1 1174:1 1531:1 1845:1 4870:1 12106:1 22038:1 22334:1 25091:1 25092:1 25093:1 25094:1 25095:1 25096:1 25097:1 25098:1 25099:1 25100:1 25101:1 25102:1 25103:1 25104:1 25105:1 25106:1 25107:1 66612:2 66618:1 
2160.989143091007 2451.17829489118 689:1 755:1 770:1 1127:1 1128:1 1140:1 20316:1 22429:1 25108:1 25109:1 25110:1 25111:1 25112:1 25113:1 25114:1 25115:1 25116:1 
1303.034424727449 1494.136070850607 11:1 14:1 45:1 104:1 226:1 473:1 586:1 2535:1 3061:1 3062:1 3075:1 3076:1 10500:1 10724:1 11078:1 11897:1 17490:1 25122:1 25123:1 25124:1 25125:1 25126:1 25127:1 25128:1 25129:1 25130:1 25131:1 25132:1 25133:1 25134:1 25135:1 25136:1 25137:1 25138:1 25139:1 25140:1 25141:1 25142:1 25143:1 66612:3 
0 1797.96105711924 14:1 45:1 551:1 997:1 1572:1 1582:1 2135:1 2148:1 2873:1 4270:1 7237:1 25186:1 25187:1 25188:1 25189:1 25190:1 25191:1 25192:1 25193:1 25194:1 25195:1 25196:1 25197:1 25198:1 25199:1 66612:2 
921.0759507728815 549.5641183405839 11:1 14:1 45:1 148:1 306:1 310:1 411:1 604:1 823:1 1150:1 1739:1 1749:1 1791:1 2019:1 2335:1 6167:1 6254:1 7073:1 7076:1 7245:1 8208:1 8220:1 9126:1 10462:1 13154:1 15715:1 16310:1 25213:1 25214:1 25215:1 25216:1 25217:1 25218:1 25219:1 25220:1 25221:1 25222:1 25223:1 25224:1 25225:1 25226:1 25227:1 25228:1 25229:1 25230:1 25231:1 25232:1 25233:1 25234:1 25235:1 25236:1 25237:1 25238:1 25239:1 66612:3 
2182.862991439956 1615.51546773808 145:1 193:1 2439:1 4180:1 5014:1 10167:1 14952:1 25240:1 25241:1 25242:1 25243:1 25244:1 25245:1 25246:1 25247:1 66612:2 
51593.54161021859 54585.68333580096 1228:1 66612:1 
2388.393630271 1073.497796131512 14:1 45:1 749:1 1124:1 1128:1 1555:1 1857:1 2435:1 4805:1 10238:1 10272:1 25272:1 25273:1 25274:1 25275:1 25276:1 25277:1 25278:1 25279:1 25280:1 25281:1 
7548.309270232287 5338.527621627312 839:1 994:1 3529:1 4210:1 25282:1 25283:1 25284:1 66612:3 
3550.104698656606 1215.135873011367 14:1 45:1 586:1 1260:1 1282:1 1815:1 2931:1 2940:1 3092:1 12520:1 23189:1 25297:1 25298:1 25299:1 25300:1 66612:1 
0 1790.294837449841 106:1 129:1 823:1 2042:1 2160:1 3956:1 5819:1 5826:1 6919:1 7158:1 22584:1 25301:1 25302:1 25303:1 25304:1 25305:1 25306:1 25307:1 25308:1 25309:1 25310:1 25311:1 25312:1 25313:1 66612:1 
1624.498765005104 557.1377407412245 11:1 14:1 45:1 193:1 955:1 966:1 1536:1 3344:1 3381:1 3506:1 4728:1 5677:1 5932:1 7016:1 7754:1 9989:1 12008:1 23738:1 24010:1 24023:1 25348:1 25349:1 25350:1 25351:1 25352:1 25353:1 25354:1 25355:1 25356:1 25357:1 25358:1 25359:1 25360:1 25361:1 25362:1 25363:1 25364:1 25365:1 25366:1 25367:1 25368:1 25369:1 25370:1 25371:1 66612:8 
4590.085848238543 2146.717298044807 98:1 4210:1 21690:1 25521:1 25522:1 25523:1 25524:1 25525:1 25526:1 25527:1 25528:1 25529:1 25530:1 25531:1 25532:1 66612:1 
